id,0,1,2,3,4,5,6,7,8,9,10,11,12,13,14,15,16,17,18,19,20,21,22,23,24,25,26,27,28,29,30,31,32,33,34,35,36,37,38,39,40,41,42,43,44,45,46,47,48,49,50,51,52,53,54,55,56,57,58,59,60,61,62,63,64,65,66,67,68,69,70,71,72,73,74,75,76,77,78,79,80,81,82,83,84,85,86,87,88,89,90,91,92,93,94,95,96,97,98,99,100,101,102,103,104,105,106,107,108,109,110,111,112,113,114,115,116,117,118,119,120,121,122,123,124,125,126,127,128,129,130,131,132,133,134,135,136,137,138,139,140,141,142,143,144,145,146,147,148,149,150,151,152,153,154,155,156,157,158,159,160,161,162,163,164,165,166,167,168,169,170,171,172,173,174,175,176,177,178,179,180,181,182,183,184,185,186,187,188,189,190,191,192,193,194,195,196,197,198,199,200,201,202,203,204,205,206,207,208,209,210,211,212,213,214,215,216,217,218,219,220,221,222,223,224,225,226,227,228,229,230,231,232,233,234,235,236,237,238,239,240,241,242,243,244,245,246,247,248,249,250,251,252,253,254,255,256,257,258,259,260,261,262,263,264,265,266,267,268,269,270,271,272,273,274,275,276,277,278,279,280,281,282,283,284,285,286,287,288,289,290,291,292,293,294,295,296,297,298,299,300,301,302,303,304,305,306,307,308,309,310,311,312,313,314,315,316,317,318,319,320,321,322,323,324,325,326,327,328,329,330,331,332,333,334,335,336,337,338,339,340,341,342,343,344,345,346,347,348,349,350,351,352,353,354,355,356,357,358,359,360,361,362,363,364,365,366,367,368,369,370,371,372,373,374,375,376,377,378,379,380,381,382,383,384,385,386,387,388,389,390,391,392,393,394,395,396,397,398,399,400,401,402,403,404,405,406,407,408,409,410,411,412,413,414,415,416,417,418,419,420,421,422,423,424,425,426,427,428,429,430,431,432,433,434,435,436,437,438,439,440,441,442,443,444,445,446,447,448,449,450,451,452,453,454,455,456,457,458,459,460,461,462,463,464,465,466,467,468,469,470,471,472,473,474,475,476,477,478,479,480,481,482,483,484,485,486,487,488,489,490,491,492,493,494,495,496,497,498,499,500,501,502,503,504,505,506,507,508,509,510,511,512,513,514,515,516,517,518,519,520,521,522,523,524,525,526,527,528,529,530,531,532,533,534,535,536,537,538,539,540,541,542,543,544,545,546,547,548,549,550,551,552,553,554,555,556,557,558,559,560,561,562,563,564,565,566,567,568,569,570,571,572,573,574,575,576,577,578,579,580,581,582,583,584,585,586,587,588,589,590,591,592,593,594,595,596,597,598,599,600,601,602,603,604,605,606,607,608,609,610,611,612,613,614,615,616,617,618,619,620,621,622,623,624,625,626,627,628,629,630,631,632,633,634,635,636,637,638,639,640,641,642,643,644,645,646,647,648,649,650,651,652,653,654,655,656,657,658,659,660,661,662,663,664,665,666,667,668,669,670,671,672,673,674,675,676,677,678,679,680,681,682,683,684,685,686,687,688,689,690,691,692,693,694,695,696,697,698,699,700,701,702,703,704,705,706,707,708,709,710,711,712,713,714,715,716,717,718,719,720,721,722,723,724,725,726,727,728,729,730,731,732,733,734,735,736,737,738,739,740,741,742,743,744,745,746,747,748,749,750,751,752,753,754,755,756,757,758,759,760,761,762,763,764,765,766,767,768,769,770,771,772,773,774,775,776,777,778,779,780,781,782,783,784,785,786,787,788,789,790,791,792,793,794,795,796,797,798,799,800,801,802,803,804,805,806,807,808,809,810,811,812,813,814,815,816,817,818,819,820,821,822,823,824,825,826,827,828,829,830,831,832,833,834,835,836,837,838,839,840,841,842,843,844,845,846,847,848,849,850,851,852,853,854,855,856,857,858,859,860,861,862,863,864,865,866,867,868,869,870,871,872,873,874,875,876,877,878,879,880,881,882,883,884,885,886,887,888,889,890,891,892,893,894,895,896,897,898,899,900,901,902,903,904,905,906,907,908,909,910,911,912,913,914,915,916,917,918,919,920,921,922,923,924,925,926,927,928,929,930,931,932,933,934,935,936,937,938,939,940,941,942,943,944,945,946,947,948,949,950,951,952,953,954,955,956,957,958,959,960,961,962,963,964,965,966,967,968,969,970,971,972,973,974,975,976,977,978,979,980,981,982,983,984,985,986,987,988,989,990,991,992,993,994,995,996,997,998,999,1000,1001,1002,1003,1004,1005,1006,1007,1008,1009,1010,1011,1012,1013,1014,1015,1016,1017,1018,1019,1020,1021,1022,1023,1024,1025,1026,1027,1028,1029,1030,1031,1032,1033,1034,1035,1036,1037,1038,1039,1040,1041,1042,1043,1044,1045,1046,1047,1048,1049,1050,1051,1052,1053,1054,1055,1056,1057,1058,1059,1060,1061,1062,1063,1064,1065,1066,1067,1068,1069,1070,1071,1072,1073,1074,1075,1076,1077,1078,1079,1080,1081,1082,1083,1084,1085,1086,1087,1088,1089,1090,1091,1092,1093,1094,1095,1096,1097,1098,1099,1100,1101,1102,1103,1104,1105,1106,1107,1108,1109,1110,1111,1112,1113,1114,1115,1116,1117,1118,1119,1120,1121,1122,1123,1124,1125,1126,1127,1128,1129,1130,1131,1132,1133,1134,1135,1136,1137,1138,1139,1140,1141,1142,1143,1144,1145,1146,1147,1148,1149,1150,1151,1152,1153,1154,1155,1156,1157,1158,1159,1160,1161,1162,1163,1164,1165,1166,1167,1168,1169,1170,1171,1172,1173,1174,1175,1176,1177,1178,1179,1180,1181,1182,1183,1184,1185,1186,1187,1188,1189,1190,1191,1192,1193,1194,1195,1196,1197,1198,1199,1200,1201,1202,1203,1204,1205,1206,1207,1208,1209,1210,1211,1212,1213,1214,1215,1216,1217,1218,1219,1220,1221,1222,1223,1224,1225,1226,1227,1228,1229,1230,1231,1232,1233,1234,1235,1236,1237,1238,1239,1240,1241,1242,1243,1244,1245,1246,1247,1248,1249,1250,1251,1252,1253,1254,1255,1256,1257,1258,1259,1260,1261,1262,1263,1264,1265,1266,1267,1268,1269,1270,1271,1272,1273,1274,1275,1276,1277,1278,1279
NZ_NXIE01000004.1_89(0),-0.04575828,-0.02840292,-0.01866865,0.10562488,-0.118163206,0.02398686,0.027307525,-0.067027844,-0.1064559,0.1035339,0.061022107,-0.072582155,0.11066098,0.006072749,0.004197772,0.000958782,0.12833184,0.106722295,0.049930457,-0.1302048,0.010328976,-0.116336696,-0.07817725,0.04782498,0.06263969,0.028478662,0.009484724,-0.0063889194,0.076435626,-0.10366864,0.020773033,0.0017736362,0.13058265,0.06850963,0.09593491,0.009695005,-0.055380248,-0.050079968,-0.018875547,-0.044369128,0.06342693,0.10726004,0.29475525,-0.01250527,0.011216129,-0.044730667,-0.08676755,0.07768352,0.022879804,-0.008171759,-0.056484934,0.0012203116,0.10954698,-0.040492028,-0.043703493,-0.045039378,-0.0036580234,0.017456852,-0.0046253437,-0.13030615,-0.09103773,0.06310931,-0.01688934,0.07873849,-0.080038585,-0.08413008,0.08940058,-0.09710523,0.11263179,-0.017882988,-0.004092101,-0.0074111195,0.03704721,-0.10091337,0.066256076,-0.032750584,-0.066962056,0.21152847,0.042100694,0.04576632,-0.09060262,0.055656355,-0.104822524,0.20065156,-0.023706434,-0.045378327,-0.025357237,-0.08592642,-0.0072944597,-0.021772137,0.05383212,0.1815709,-0.07278343,0.021775234,0.02620694,-0.034276366,-0.035060477,0.010323915,0.031185087,-0.017387964,0.027745957,-0.038954936,-0.043137744,-0.1101751,0.03215431,0.035010368,-0.07196937,0.026363725,-0.08079019,-0.08098651,-0.070491455,0.08089527,-0.024070501,-0.04205805,-0.09348385,0.064346515,-0.19313073,-0.08606214,-0.030277822,0.059266884,-0.09816318,-0.11388751,0.1410411,-0.014157065,0.04002565,-0.13523066,-0.022509338,0.017504618,-0.061176542,-0.0067058164,0.12283473,-0.115818,0.055158768,-0.08966396,-0.01782585,0.008101219,0.061205663,-0.0266976,-0.035674274,0.008733055,0.11404183,-0.16544673,-0.015338321,-0.035682205,-0.037041,0.16278444,-0.11417938,0.07702813,-0.032288086,-0.08634596,0.13428354,-0.07650828,0.16368681,-0.07287758,0.05932048,-0.16975409,0.1317999,0.011549856,0.03842254,0.08687502,-0.07308684,0.2314868,0.036391262,-0.054383457,-0.1254092,0.058166284,0.013681407,-0.041572206,0.10610531,0.15014306,-0.088965,0.0037432353,0.13966388,-0.052765302,-0.147252,0.022326143,-0.005194224,0.0779756,0.108079545,0.04036895,0.07555402,-0.025881456,0.020022715,0.078357294,0.08693332,-0.010902251,-0.045848638,-0.019192236,-0.010402674,-0.05329798,0.05786952,0.14633772,0.076105975,-0.11913645,0.1384539,0.06741344,0.052424278,0.06440466,-0.008447163,-0.06474378,0.054719564,0.059911188,-0.04087116,-0.03035932,-0.08100855,0.0129602235,0.023587868,-0.034682274,-0.27084723,-0.21405374,0.01839377,0.052084036,-0.03813249,-0.048219528,-0.038921468,0.033175383,0.14954072,-0.03993402,0.091721065,-0.0026294119,0.02522681,-0.08405555,0.034866024,-0.029062256,-0.061007906,-0.14070174,-0.2060591,0.0143702105,-0.23609734,0.036413018,0.07976186,0.014540445,-0.0012171154,0.006097584,-1.3032016,0.010586772,0.30612838,-0.059308946,-0.12463227,-0.05292633,-0.13689137,0.104421906,-0.065573305,-0.0142236,0.07829524,0.10882635,0.053200737,0.05069229,0.044771656,-0.073528,-0.050186027,-0.008885132,-0.18849099,0.029053321,-0.01806584,0.10784982,-0.11817064,-0.07792882,-0.016277915,-0.11429805,0.19907263,0.04726168,0.03717741,-0.018142508,-0.057439636,-0.041444004,-0.0333844,-0.13349605,-0.039457,-0.06555006,-0.078360446,-0.0022255627,-0.08839074,0.021168388,-0.06117657,0.04636502,0.026202902,0.015391523,0.043896664,-0.017888486,-0.0014406196,-0.12405598,0.20852529,0.054275572,-0.06037313,-0.13077852,0.014398923,0.010747959,0.028734699,0.08438364,-0.00543928,-0.108551025,-0.123489104,-0.12203094,-0.09790382,0.117162876,-0.030239543,-0.030819118,0.016730791,0.075777486,0.15724689,-0.004223901,-0.16437064,0.093024954,0.044097424,-0.012020529,0.060885753,0.03560643,-0.05074207,-0.06648523,-0.025353044,0.036393162,0.11120021,-0.13193123,-0.026989795,0.028585548,-0.18636289,-0.13992968,0.075485036,-0.012542222,0.011133723,-0.09876065,-0.024140608,0.008153456,-0.03159275,0.04005519,0.04836074,0.029283563,0.115952134,-0.06463673,0.04132583,-0.10270133,0.1195632,-0.010267641,-0.14222929,0.05147247,0.20029213,-0.018031603,-0.14889665,0.085189596,0.16747434,0.00074660295,-0.007620823,0.0090986295,-0.029406171,-0.014500389,-0.048821446,0.0444862,0.037197288,-0.007488172,0.15999517,-0.078727975,0.12002314,0.026110006,0.1519715,0.017889116,-0.036917474,-0.016538968,-0.063994974,0.072140284,-0.1653635,0.012507717,-0.015187137,0.07181994,0.06217033,-0.009196863,0.046935428,-0.03478956,0.0041350955,-0.022341577,0.20490223,0.12566915,-0.082347125,-0.09000196,0.07197665,0.15113932,-0.00852001,0.18213487,0.12879905,0.070264645,0.040016837,-0.15669873,0.010219146,0.052268863,-0.019946543,-0.035578344,-0.058660805,-0.047392037,-0.03565572,-0.020123933,0.009937183,0.12320903,0.09562082,-0.030288441,-0.030099334,-0.111256406,0.08263085,0.028317317,-0.008699261,-0.013274812,0.13942546,-0.06723122,-0.11432118,0.19391815,0.046063554,0.14183219,0.17533153,0.036098886,-0.026287096,-0.11963538,0.13638267,-0.00798573,0.023954293,-0.12388052,-0.03742563,0.09427024,0.096524954,0.15077358,-0.009201526,0.10986956,-0.024267022,-0.08587111,0.04361769,0.07306478,0.13427293,-0.035522632,0.03278116,0.00027977306,0.11542692,0.10043599,-0.058901954,0.2018676,-0.07813497,-0.019208359,0.16850255,0.058443233,-0.0016974676,0.024725288,-0.01717205,0.012126915,-0.1002448,-0.023946678,0.054708254,-0.15088342,0.009152083,-0.03314328,0.08064673,-0.047048464,0.049949236,0.056160748,0.12365709,-0.06711066,-0.0074505587,0.091712646,0.12442001,-0.035838608,-0.09066739,-0.002179077,-0.07743394,0.20133236,0.15648632,0.08323418,0.03755409,-0.100312784,0.094705164,-0.104728706,0.0146946525,0.0011586642,0.0514508,0.12167914,0.0004852444,0.043327015,0.14772588,-0.014139836,8.456033e-05,-0.00034346318,-0.058890957,0.16969024,-0.057981353,-0.029678095,-0.030691378,-0.108313404,-0.03894632,-0.048814427,0.16499625,-0.07178767,-0.044487793,0.02736882,0.043418568,0.09725561,0.05257322,-0.13377135,-0.017290168,-0.07613059,-0.0077306633,0.04521896,-0.005107575,-0.018308785,-0.099731006,-0.007748477,-0.10962179,-0.02898416,-0.0900062,-0.032178067,-0.05875399,-0.07735951,0.0743794,0.10817723,-0.13365197,-0.046123963,0.07795909,0.07457783,0.08724815,-0.16839391,0.070707425,-0.07974078,-0.023474293,-0.05634759,-0.01654188,-0.05185231,0.024842536,-0.14695711,-0.07711813,0.09687019,-0.055263393,-0.07510275,0.024122285,-0.0072340304,-0.05203984,-0.023267072,0.042356957,0.15969093,0.014957682,-0.09912902,0.04340453,0.038477235,0.08715226,0.058937613,-0.22527373,0.0879028,-0.10072274,-0.06319991,-0.053508,0.08945686,0.012586451,-0.061474543,0.10175221,-0.11054154,-0.037789986,0.10345563,-0.0065903617,0.07871428,-0.15074378,0.20571774,-0.067740574,-0.11119668,-0.1221381,-0.02238188,0.03774066,0.12566918,0.034295097,0.089776605,-0.036724422,0.03344412,0.16666886,-0.09659833,0.107010536,-0.059267573,0.16805322,0.053349856,-0.048013583,0.24831498,-0.013284043,0.03296093,-0.076007314,0.1931787,-0.08878124,0.08694064,-0.04455308,-0.1324099,0.04693651,-0.034906942,-0.054013513,0.12805879,0.03613282,0.07136579,-0.010562272,-0.0019104325,-0.022661967,-0.033978276,0.01396815,-0.0539373,0.064321056,0.16275077,0.07297658,0.05660031,0.11949943,0.045501757,0.009365192,0.029604549,0.05209007,-0.078388564,-0.024927618,0.05191778,0.033230245,0.015966093,-0.11467928,-0.060321134,-0.13893302,0.018553214,0.049541593,0.07552103,0.060461733,-0.042238872,-0.0015236376,0.10685598,0.044628527,-0.0288395,0.12664668,-0.11601094,0.013167989,-0.02613159,-0.022109203,-0.048741918,0.017251851,-0.003799222,0.015998205,0.04991857,-0.0034773897,0.0070491945,0.010345022,-0.012838623,0.07923356,0.06823176,0.09370634,-0.013816723,0.027857928,-0.021412773,0.007698146,-0.19926645,-0.09564419,-0.063831374,0.07153859,0.110529415,0.026669793,0.020418556,0.021803338,0.0056212503,-0.03032608,0.11870189,0.055406123,0.17651111,-0.010985507,0.0050193244,-0.015001272,-0.0839629,-0.042037327,0.05875296,-0.04745295,0.13802852,0.047515083,0.06019778,-0.097793065,0.0059578437,0.15513521,-0.027997924,0.02966679,-0.0129478015,0.08866503,0.051540658,0.02263774,-0.17123069,-0.03247496,-0.10003452,-0.07710756,-0.01388491,0.04551027,-0.028195925,-0.05215881,-0.00051881326,0.05915352,0.015631765,-0.05630373,0.18032666,0.10708369,-0.07284906,-0.008626629,0.1615921,0.14564565,-0.02409111,-0.16539644,-0.10941828,-0.11124181,0.027130878,-0.0185965,0.028575147,-0.04509243,-0.11489562,0.1124928,-0.03322759,0.08324578,0.04987319,0.04919171,0.041692276,-0.027100705,0.033489127,0.14616244,0.05950951,0.052862845,0.0013797542,-0.021341754,0.029201077,-0.051320802,-0.058735475,-0.014167112,-0.05056176,-0.035677172,0.12175329,0.031099156,0.039874855,-0.0016500578,-0.030272234,-0.05040542,0.10890665,-0.0881935,-0.0077747996,-0.02497827,0.06672567,-0.00043108698,0.04174131,-0.09121345,-0.038703263,0.1250599,0.14081001,0.057101477,0.013404049,-0.014011884,-0.017197995,0.049034823,0.03640059,-0.062795535,0.055769514,-0.020403525,-0.05567792,-0.14644785,-0.09474239,0.09306434,0.08085572,0.049935225,0.14769936,0.010907325,0.10398468,-0.0434631,-0.05820837,-0.16027057,0.06118514,0.1014942,0.04419917,-0.060878776,-0.068973996,-0.14343262,0.18113151,0.03838368,-0.0027365852,-0.056247517,0.016197741,-0.07446234,0.021017995,0.034544185,-0.033663377,0.03442459,-0.038893722,0.089961074,-0.0322868,-0.012881811,0.13088131,-0.016310396,0.02808833,0.055911306,-0.09558566,-0.2043464,0.07107029,-0.0581018,-0.083425425,-0.034219887,0.048903745,0.15436757,-0.12142537,0.0906182,-0.08892925,-0.03868157,0.04848855,-0.002317398,0.21501487,-0.054478798,0.10616089,0.03552642,-0.054881345,-0.22316481,-0.07096483,0.008036051,0.116297185,-0.03317427,-0.1595971,-0.029999176,0.009969371,0.08015601,-0.06611994,-0.067979716,-0.13389608,-0.010723285,-0.19041279,0.057290647,-0.16292308,-0.037095115,-0.015897153,0.054226533,-0.050825696,0.10091135,-0.014239878,0.05135308,0.08415262,-0.14077726,-0.0077722687,0.01210699,-0.017006578,0.05626927,-0.24685532,-0.019353129,-0.12700447,-0.062186733,-0.05456487,-0.09881303,0.096606016,0.063105576,0.03833476,0.21672983,0.06175135,0.004528552,-0.09201641,-0.19874881,-0.05456336,0.05612661,0.031165758,0.0507037,0.1627247,-0.042354383,-0.029175267,0.098644465,-0.09453099,0.07462911,-0.2369137,-0.07333089,-0.024195028,-0.08025031,0.012659011,0.073923014,0.13420951,0.025965154,-0.11487638,0.07249237,0.003206527,-0.11424104,-0.103725865,-0.016851788,-0.04443442,0.03603884,-0.12682219,0.023180174,0.07827717,0.039595082,0.1867381,0.12541963,0.05835994,-0.018715356,0.038372103,-0.66293573,-0.052327633,0.008010525,-0.010797851,0.10374466,-0.029708328,-0.05992608,-0.08681334,-0.02086083,-0.07114631,0.10552996,-0.018206527,-0.07375629,0.042273108,-0.050290555,0.10338367,0.096153654,0.16859224,-0.09231656,0.037060667,-0.016118614,-0.114559904,-0.005392325,0.054353103,0.026410948,-0.06208017,0.05932339,-0.0050057108,0.062318094,0.06510618,0.077916875,0.020074842,-0.0686212,-0.018797861,-0.1017406,-0.0538399,-0.09270362,-0.02094,0.031577338,0.033596754,0.06089026,-0.032103207,0.0032965601,0.08382728,0.16695175,-0.07417344,-0.02352702,0.050726928,-0.08314534,-0.09323246,0.1322432,-0.011207937,-0.043966208,0.037543327,-0.016812205,-0.09526405,-0.10138109,-0.10842373,0.040973563,0.035598736,0.038311075,0.0837935,0.11784516,-0.01205119,-0.0123050595,-0.04510483,0.10327175,0.07620747,0.006715435,0.05313666,0.17748779,0.020675188,-0.064817816,-0.07012038,0.13013211,0.0117169,0.039942574,-0.0402889,-0.12971899,-0.05757111,-0.08571108,-0.014844024,0.009632689,0.048573084,-0.012149589,0.12105193,0.006091107,0.03779464,-0.013607456,0.025724754,-0.050961085,0.0043483856,0.14349473,-0.14875162,-0.06576018,0.16124704,0.14589603,0.014241457,0.013355561,0.08881961,0.04011542,-0.012153803,-0.020746224,0.02344887,-0.08088205,0.04047285,0.090381466,0.06288098,-0.01206223,0.11395497,-0.06806746,0.034182113,-0.08156471,0.091910884,-0.029557401,-0.02515196,0.09656137,0.05299844,0.011329881,-0.016615598,-0.0377223,0.032942686,0.08093219,-0.01776017,-0.052743122,0.06986037,0.046223816,-0.034485333,0.023024762,0.034347914,-0.028517272,0.026851038,-0.088668056,-0.14577541,0.08242522,-0.09725443,0.06068429,-0.030971847,0.035303168,0.20307297,0.044674426,-0.016122438,-0.010514719,0.07634606,-0.1608918,0.07269278,-0.024325134,-0.10087846,0.03695439,-0.008403436,-0.063426994,-0.059020307,0.08936388,-0.06293688,-0.008803181,0.0072626546,-0.024643552,0.030317925,0.09077229,0.24234845,-0.016008815,0.08650827,-0.021255607,-0.005273254,-0.056892835,0.016776638,-0.046084885,-0.051174376,0.032315664,0.02401508,-0.019367712,0.06833049,0.0044102287,-0.12323778,-0.17725536,-0.038190965,0.112117566,-0.0066126767,0.006821801,0.066265084,0.019479778,0.09729732,0.041139763,-0.090691954,-0.15319604,-0.06832445,-0.11201144,0.20717852,-0.10951498,-0.0792235,0.027670722,0.19821395,0.048777383,-0.016119843,-0.0324302,0.0068602175,-0.0118216975,0.060694724,0.16929887,0.02116427,0.00018400936,0.0108244205,-0.05961362,-0.0037754648,0.14345764,0.06835287,-0.0874613,-0.15772867,0.15262726,0.027233947,-0.109655686,0.10909542,0.13030367,0.042360798,-0.11090338,0.005816055,-0.034016516,-0.16343628,0.0471135,0.048655394,-0.0083715,-0.06789761,0.08044182,0.081664816,0.025216425,-0.0123445,-0.05820153,-0.18983813,-0.028670141,-0.050846133,-0.07259141,0.07579609,0.002933466,-0.033064805,0.037499927,0.1416401,-0.10247849,-0.042203393,-0.06945811,0.06419024,0.061519112,-0.04097897,-0.09168023,0.0045575057,0.074011385,-0.11469098,0.00052927056,-0.14119239,0.01897806,-0.09033296,-0.04926379,0.0039867857,0.068458766,-0.018090984,-0.039470453,-0.092723675,-0.0061224694,0.061610617,-0.048199296,-0.049984675,0.07436392,0.006409956,0.028999548,-0.005920414,-0.010140217,0.024527263,-0.1409956,0.039932895,-0.111552075,0.2074277,0.044445693,-0.030700266,0.0227559,-0.010538833,-0.0131081,0.05192129,-0.024327029,-0.05848246,-0.09009145,-0.08844941,0.029608626,-0.028692635,-0.020055775,0.03251628,-5.07208,0.04877308,0.0047923014,-0.022814231,-0.062268276,-0.083482675,-0.07736811,-0.14418708,0.17938694,0.031357877,0.11583259,-0.063467205,-0.056837294,0.02929485,0.076255,0.06601698,0.03880493,-0.11782806,-0.057414643,-0.030611414,-0.0022243601,-0.05529427,0.028584506,0.07951304,0.04109276,-0.026624069,0.010596225,-0.0949088,0.17614864,0.13736783,0.06449719,0.06868993,-0.0691632,0.1382627,-0.03133559,0.12617077,0.04068174,0.061410457,0.19516714,0.021444641,0.013970672,-0.0960406,0.075715564,-0.047215246,0.008091194,0.049645625,-0.029686876,0.0066037755,-0.07249048,0.094485745,0.09537022,0.085566066,0.014684853,-0.14434351,-0.041111484,-0.008714648,-0.013338705,0.06964608,0.029632116,0.0055418187,0.06937619,0.056086026,-0.14898124,0.06650088,0.10243441,-0.10057512,-0.06669076,0.016089084,0.0203606,-0.078359246,2.9597619e-05,0.042441174,0.07506776,0.088502534,0.053812865,0.09154474,-0.1216493,0.007831178,0.080210336,0.051757384,-0.12762968,0.08127994,-0.077631235,0.07827979,0.07106313,-0.0072529363,-0.0014363714,0.14536849,-0.03642444,0.15390971,0.09088411,0.12838224,0.031268626,-0.0076006735,0.047057133,0.03183922,-0.08763722,0.0010236205,0.08785619,0.12753378,0.011635172,0.074189536,0.036761995,0.06949823,0.040637776,-0.041688744,-0.06714591,0.012904052,0.023999758,0.052042726,0.16555633,-0.06335339,-0.05759958,0.050842445,-0.10785354,0.12196912,0.086765036,-0.13044345,-0.06300627,0.022350902
NZ_NXIE01000004.1_89(1),-0.044196073,-0.026867969,-0.022050371,0.10988845,-0.11667211,0.018767703,0.026708808,-0.067549974,-0.108637445,0.09972727,0.072329454,-0.07717554,0.111038946,0.009268677,0.013691608,-0.009110243,0.13359506,0.11528841,0.049598154,-0.123123825,0.0070242886,-0.122203596,-0.08755497,0.039970167,0.058907527,0.0345306,0.014033814,-0.008764194,0.081775285,-0.10993761,0.021529453,0.01054909,0.13379268,0.07345603,0.08825742,0.013193329,-0.053433325,-0.058622077,-0.018039398,-0.045108702,0.059397854,0.10164396,0.2972453,-0.006398528,0.0022799657,-0.041658986,-0.07888149,0.07944111,0.034812585,-0.013785939,-0.05775231,0.004265936,0.10880972,-0.044976734,-0.03956183,-0.04778322,0.0029471312,0.013157409,-0.0068235165,-0.11784372,-0.09123233,0.069675416,-0.019669065,0.08349786,-0.08630412,-0.08587987,0.08523157,-0.10296453,0.12158971,-0.020624842,-0.008915124,-0.012006524,0.048997626,-0.093556926,0.06746118,-0.034786258,-0.06465675,0.21397108,0.042949367,0.043676127,-0.09149971,0.051157624,-0.11331309,0.20247374,-0.017755738,-0.044034533,-0.015862972,-0.07536058,-0.005885275,-0.016492605,0.057414647,0.18092206,-0.07839275,0.020997526,0.030131286,-0.032293506,-0.039123304,0.016955016,0.037734672,-0.019860758,0.035320204,-0.040786777,-0.03917282,-0.109700404,0.03139526,0.031605534,-0.070514716,0.018281072,-0.087940484,-0.06909098,-0.06334484,0.075727046,-0.023022959,-0.038042687,-0.09678454,0.06299737,-0.20049739,-0.08533129,-0.02721795,0.06516969,-0.09646143,-0.108201064,0.13465813,-0.02651663,0.045495663,-0.13677797,-0.026686538,0.026026119,-0.07344429,-0.009588111,0.10791943,-0.12577924,0.058689013,-0.08858044,-0.025448622,0.0037952992,0.059180506,-0.014121581,-0.026156219,-0.0043572644,0.11945397,-0.16558403,-0.0109109,-0.04139276,-0.040953755,0.1602998,-0.11144407,0.09071428,-0.037569534,-0.09416767,0.12782755,-0.08681597,0.15943952,-0.074338526,0.053293563,-0.17294776,0.12617882,0.014941862,0.022739705,0.090473,-0.0669499,0.22947416,0.0523734,-0.07184974,-0.12644324,0.05865747,0.014828611,-0.039582152,0.107657485,0.14692637,-0.094502844,0.012054185,0.14398189,-0.049501978,-0.13333577,0.016854594,-0.0022964864,0.075769745,0.099657886,0.020915711,0.081888616,-0.012376022,0.011705717,0.07840128,0.08987527,-0.009522231,-0.050572664,-0.010318837,-0.01507113,-0.06169524,0.06144566,0.15324286,0.08008514,-0.116441384,0.14560975,0.07256995,0.04338627,0.06332441,-0.011263932,-0.06832995,0.045703344,0.05995194,-0.04678565,-0.025342349,-0.08878603,0.015795385,0.034429666,-0.040244706,-0.26539686,-0.21327554,0.0047817784,0.048755158,-0.04832758,-0.050753165,-0.029451987,0.03582167,0.14799592,-0.040869087,0.096083164,-0.011932321,0.013547153,-0.07884651,0.032610197,-0.01941287,-0.07068032,-0.15144981,-0.21487002,0.015848532,-0.23210773,0.030553335,0.07023055,0.0006759379,-0.00033405673,-0.008243659,-1.1408131,0.006766715,0.31038523,-0.051731225,-0.1333246,-0.05508069,-0.13704473,0.111443125,-0.05114033,-0.006907368,0.093500175,0.10654749,0.06100263,0.04920003,0.04210306,-0.07998287,-0.052144136,0.00035037918,-0.18987985,0.024281196,-0.025152221,0.10435413,-0.12544343,-0.06221932,-0.0063651595,-0.10521711,0.21279085,0.04609403,0.023037396,-0.010917828,-0.05856846,-0.037798017,-0.03516873,-0.1284436,-0.04434578,-0.068137445,-0.08241041,-0.0036320689,-0.08673016,0.02729666,-0.05974598,0.043161087,0.026518673,0.022197913,0.03840249,-0.021827634,0.0047866516,-0.1152202,0.21650016,0.054894153,-0.07061176,-0.13098836,0.016910516,0.004201884,0.027505683,0.086768724,-0.00022939987,-0.11427446,-0.11743953,-0.12532756,-0.09559731,0.116365775,-0.024698924,-0.03391818,0.016410016,0.0690998,0.16378722,-0.005347332,-0.15240316,0.09169837,0.045274336,-0.008773139,0.049847472,0.031906392,-0.043157846,-0.0638424,-0.029292496,0.038240947,0.10472607,-0.11959052,-0.030639369,0.030310111,-0.19011061,-0.13588467,0.068310566,-0.0038287595,0.00017713751,-0.095704064,-0.024307411,0.007070983,-0.040367827,0.04661811,0.040038534,0.027104422,0.11406465,-0.06371803,0.044347234,-0.111899704,0.11572363,-0.0009149594,-0.14758705,0.039683703,0.21653971,-0.019875081,-0.14037512,0.08357142,0.17236036,-0.0031560166,-0.00053611724,0.0022263718,-0.04038567,-0.01673767,-0.052264843,0.04355646,0.050682556,-0.014428503,0.15963374,-0.085670434,0.12248271,0.024630524,0.1589395,0.023807814,-0.050733227,-0.008788268,-0.061330017,0.0759587,-0.15603518,0.0041091694,-0.018987007,0.08378935,0.06675227,-0.016083527,0.04527912,-0.035563424,-0.00028876,-0.025345346,0.20955482,0.1211931,-0.07410232,-0.09271161,0.08579426,0.14656426,-0.017058335,0.19061926,0.12533098,0.08559627,0.041238982,-0.15129383,0.0026046215,0.03961345,-0.021804133,-0.039078046,-0.050568625,-0.04597871,-0.025989467,-0.015842758,0.01906528,0.12135696,0.10787027,-0.022131039,-0.02677874,-0.11475188,0.092690304,0.027107604,-0.014012931,-0.008866495,0.14624485,-0.068892635,-0.12268939,0.19422811,0.04018703,0.13412726,0.18386482,0.031425547,-0.022479698,-0.11803066,0.13897967,-0.0027759736,0.019298498,-0.12446035,-0.042253293,0.089556836,0.09244314,0.14585258,-0.007286353,0.105797194,-0.031268653,-0.09408284,0.03359034,0.070167445,0.14473474,-0.034447536,0.026225265,-0.0054115793,0.10134979,0.097256616,-0.052941248,0.20285006,-0.0809817,-0.01905667,0.15819809,0.057104032,-0.0036118838,0.029541938,-0.0060263434,0.015008669,-0.09622127,-0.025670776,0.061508387,-0.14826323,0.014273413,-0.04177,0.07877831,-0.046443835,0.051260702,0.06156865,0.119607255,-0.08024032,-0.011078385,0.09807278,0.12277178,-0.04736579,-0.09442109,-0.00076476973,-0.07242896,0.20061153,0.15248333,0.08695711,0.024363244,-0.102658026,0.09063502,-0.096238054,0.017611494,-0.009523245,0.049645655,0.12546258,0.0049689976,0.039928872,0.15126215,-0.018063987,-0.004205479,-0.004321991,-0.065985136,0.17110491,-0.057550088,-0.032204546,-0.02854449,-0.10015905,-0.044838257,-0.043729622,0.15829954,-0.07168379,-0.046045844,0.03276824,0.0470984,0.10491118,0.048029765,-0.14766803,-0.01778889,-0.07494627,-0.010715503,0.03948295,0.0006876154,-0.012892251,-0.098810524,-0.0149965435,-0.10940164,-0.034973722,-0.10047253,-0.028902773,-0.07061724,-0.077824324,0.06962444,0.11156758,-0.13283107,-0.034512434,0.06740129,0.08060002,0.09326518,-0.17288691,0.07163178,-0.08838444,-0.02650616,-0.060884256,-0.018903565,-0.05394906,0.016254786,-0.136326,-0.078140415,0.094821244,-0.06106156,-0.08461885,0.023350261,-0.01288242,-0.046491012,-0.02401765,0.038182106,0.1564743,0.018312028,-0.09624217,0.051459663,0.033903435,0.104025654,0.0656531,-0.22975622,0.086911686,-0.09518954,-0.06488321,-0.06164944,0.09088055,0.013078184,-0.05589459,0.10882257,-0.115219116,-0.03198742,0.09769914,-0.005715141,0.08904906,-0.15098533,0.2045069,-0.07667132,-0.10833814,-0.11739629,-0.029603466,0.03288733,0.13563064,0.032634594,0.09136247,-0.042007025,0.036915533,0.16696674,-0.09878886,0.10975289,-0.06443572,0.16208002,0.046676353,-0.053524088,0.25721803,-0.009223973,0.022299273,-0.06852061,0.19221114,-0.08533869,0.080323376,-0.03690888,-0.12775114,0.047978915,-0.03817674,-0.053441234,0.13096717,0.03465981,0.06600699,-0.011714391,-0.005025237,-0.020639366,-0.031997345,-0.00019825317,-0.054230466,0.059630644,0.1546072,0.074304365,0.058049906,0.12752612,0.04235695,0.016820645,0.027123189,0.054690566,-0.09100889,-0.035478227,0.048497453,0.043239187,0.01266645,-0.12163083,-0.042503297,-0.1215278,0.023422394,0.048870664,0.07942042,0.05277758,-0.035831273,-0.00405337,0.10969279,0.045433898,-0.028907755,0.12949397,-0.12130356,0.0050627436,-0.027706508,-0.024437804,-0.051153097,0.020944912,0.0012363476,0.0092384,0.053047605,-0.010051947,0.004649561,0.01093841,-0.014718827,0.070995845,0.06287509,0.09576433,-0.019103851,0.015953762,-0.02506449,0.0060881968,-0.19216257,-0.09911397,-0.06373076,0.08030174,0.10424952,0.024209123,0.02494817,0.016003951,0.013912007,-0.018160382,0.10950195,0.0531998,0.17577004,-0.008238606,0.0009404942,-0.013712362,-0.07219276,-0.041216854,0.06658458,-0.04530334,0.1357755,0.048611496,0.069303684,-0.102801524,0.011918463,0.1462951,-0.02150414,0.025397299,-0.013120097,0.091113366,0.049770366,0.023939567,-0.1729877,-0.0300224,-0.11417293,-0.07670528,-0.018525738,0.041824177,-0.035464108,-0.04956479,-0.0062931404,0.06123772,0.016724968,-0.05894482,0.18087624,0.10918696,-0.061428845,-0.007969835,0.16487326,0.15164928,-0.02417331,-0.18461284,-0.11212507,-0.10940092,0.016581552,-0.019678151,0.028800648,-0.047634784,-0.123112835,0.12120602,-0.03219785,0.08893574,0.05800529,0.047051974,0.036005963,-0.03103434,0.048693452,0.15401128,0.050591502,0.053027827,0.00506307,-0.0090203,0.035202347,-0.059522025,-0.062282756,-0.013430846,-0.04851504,-0.02215921,0.120472424,0.029860614,0.03707362,-0.0065294323,-0.037391838,-0.0406599,0.10561562,-0.09454889,-0.015312884,-0.03105207,0.07131985,-0.0051782923,0.041368995,-0.08196204,-0.04386506,0.12676053,0.1329939,0.054950085,0.001197057,-0.062157996,-0.028474098,0.055191416,0.038147893,-0.07027644,0.055898387,-0.024788892,-0.054971162,-0.14370868,-0.09651066,0.097632594,0.08219929,0.05047866,0.14448237,-0.00041179726,0.09726307,-0.05343197,-0.05091513,-0.16326714,0.06306534,0.10407559,0.04656173,-0.067968465,-0.0632613,-0.13680407,0.17579646,0.044622056,-0.009194546,-0.055053744,0.0062733027,-0.0760669,0.028276091,0.03367006,-0.030010913,0.028430907,-0.029718239,0.092343636,-0.022132225,-0.01319931,0.12381298,-0.014773783,0.035661448,0.055868257,-0.08803491,-0.19597836,0.07296092,-0.06547712,-0.09181377,-0.028065637,0.048678387,0.15752545,-0.11425242,0.101810694,-0.08590355,-0.030502142,0.0540482,-0.010778453,0.21606675,-0.05438783,0.10410711,0.041750688,-0.034801632,-0.23061928,-0.0693533,0.008546085,0.114963055,-0.03658209,-0.15946008,-0.02418918,0.0060225357,0.07472449,-0.064010024,-0.06981461,-0.13632643,-0.006836624,-0.18250227,0.05587356,-0.15750644,-0.04087909,-0.0117357215,0.04063502,-0.054178577,0.097381264,-0.010341487,0.038948048,0.08636944,-0.1451113,-0.00081353413,0.013812679,-0.02046637,0.051022746,-0.24980795,-0.022704015,-0.12389981,-0.06844359,-0.06462201,-0.08965142,0.09359133,0.059860848,0.033456214,0.21302122,0.059587944,0.01161036,-0.08154866,-0.20680127,-0.05662928,0.06540364,0.03679896,0.042387847,0.16425022,-0.047834627,-0.031936005,0.09401685,-0.095963165,0.075562045,-0.2337011,-0.0706398,-0.020432357,-0.07740374,0.010915851,0.07452693,0.12924394,0.0132949175,-0.11982434,0.07379259,0.0028661084,-0.117514305,-0.1013683,-0.026889198,-0.04938714,0.04312645,-0.12863313,0.022075828,0.06809493,0.047489546,0.1913158,0.12803707,0.05926725,-0.014464537,0.052350033,-0.69751376,-0.0627783,0.008279046,-0.016109373,0.094123,-0.038304288,-0.047372937,-0.09017319,-0.019822339,-0.07498651,0.106546745,-0.018920254,-0.075494744,0.041824333,-0.04999272,0.10296102,0.09463455,0.15982378,-0.09166344,0.04270685,-0.021499561,-0.1144666,-0.009229755,0.056373727,0.029359255,-0.057441663,0.056060806,0.00065928884,0.06627244,0.067357264,0.077765666,0.02618064,-0.06511902,-0.02440959,-0.09845865,-0.052094165,-0.08472369,-0.010096025,0.018479794,0.03702507,0.054485526,-0.018028686,0.0037245436,0.09204724,0.17647427,-0.06725599,-0.029064158,0.049237676,-0.080505125,-0.08470764,0.12765625,-0.017159797,-0.039260704,0.036858518,-0.011325132,-0.103718534,-0.10230946,-0.11832255,0.051062424,0.0340455,0.039108895,0.093077436,0.1276604,-0.019259263,-0.009435936,-0.045908205,0.104446255,0.075622626,-0.002609796,0.06013705,0.17040886,0.027774123,-0.070361614,-0.07264183,0.14022829,0.01409189,0.052986875,-0.04485429,-0.12947202,-0.05582183,-0.085324556,-0.0112058865,0.015138861,0.04884999,-0.016887864,0.13201183,0.013202859,0.030042619,-0.012533027,0.027770864,-0.049310528,0.0021454478,0.14076622,-0.14324152,-0.07690247,0.16314554,0.14326088,0.0121590365,0.008475233,0.09581527,0.03101878,-0.012215626,-0.026286632,0.01654702,-0.09050927,0.041368045,0.08374486,0.05694589,-0.010344144,0.10968314,-0.059042852,0.026626097,-0.08589838,0.087797776,-0.014402019,-0.02832133,0.09351287,0.04926984,0.016372774,-0.018184058,-0.04383862,0.030584725,0.07817617,-0.02169679,-0.061685126,0.060558125,0.041136544,-0.033784606,0.025373416,0.03524372,-0.028440712,0.03310338,-0.07920729,-0.15173127,0.067483425,-0.08048967,0.057840936,-0.041486677,0.03709248,0.20534629,0.046781946,-0.01214614,-0.010695572,0.08444174,-0.16549364,0.07430084,-0.028444063,-0.09298104,0.03101564,-0.003773326,-0.06444208,-0.06794198,0.09239287,-0.07232274,-0.013620735,0.015423966,-0.02403811,0.02216957,0.09032745,0.24929845,-0.0146637615,0.087724514,-0.015797291,-0.0070408448,-0.057966553,0.020341985,-0.05535718,-0.05055854,0.042303264,0.031411614,-0.023398794,0.076663606,0.0060627847,-0.124440216,-0.18322337,-0.048602387,0.11226593,0.004278898,0.0034258908,0.06260751,0.01948149,0.099862605,0.033843458,-0.09757242,-0.15261413,-0.06348905,-0.11255015,0.2107073,-0.11132041,-0.0650404,0.034182817,0.19958773,0.048077654,-0.01060638,-0.036489036,0.007682334,0.0027740495,0.065888494,0.16813537,0.019662254,0.006560151,0.007908386,-0.06401364,-0.0040944484,0.16043593,0.07462802,-0.08827982,-0.16554819,0.14112335,0.03366493,-0.10862251,0.13021515,0.13861422,0.04898236,-0.11580574,0.006243762,-0.036014166,-0.17379953,0.05862321,0.05360228,-0.010963164,-0.06823362,0.06758034,0.06475938,0.021778114,-0.009646105,-0.059052646,-0.19767505,-0.032267757,-0.04448166,-0.07492095,0.07807046,0.011108314,-0.027668294,0.038329173,0.15499498,-0.10923902,-0.044290736,-0.07605495,0.06304938,0.059596483,-0.02598616,-0.091863126,0.0038522657,0.07250122,-0.11743954,0.0019471786,-0.13613282,0.022949198,-0.08567361,-0.054312672,-0.0012599286,0.06333486,-0.018150456,-0.040738538,-0.09230576,-0.005845158,0.05883265,-0.0437105,-0.04905557,0.070439145,0.0083644325,0.031304218,0.0041811527,-0.02497035,0.022644762,-0.14931016,0.036730412,-0.123219475,0.19577143,0.045104466,-0.03450139,0.016653787,-0.0039017743,-0.00920369,0.044704378,-0.018906713,-0.06381527,-0.088679925,-0.08792017,0.030295469,-0.035086975,-0.029083734,0.041433044,-5.0251694,0.040957097,0.012749677,-0.015463652,-0.06974051,-0.08913729,-0.08408848,-0.13834187,0.17986599,0.03343568,0.118693635,-0.06513177,-0.043359477,0.03348802,0.08584551,0.05557384,0.03826213,-0.10408601,-0.0556384,-0.02257816,-0.0046706237,-0.05467681,0.022228936,0.09284532,0.039511103,-0.036686424,0.018142426,-0.078865446,0.17563465,0.14897157,0.05954156,0.06953884,-0.07237934,0.13886145,-0.024356382,0.1366119,0.04606375,0.056002,0.20089641,0.021561086,0.015161107,-0.0925841,0.066653155,-0.048994157,0.013182698,0.049423043,-0.025693204,-0.0057951813,-0.07215897,0.09158113,0.0962118,0.07824252,0.012464698,-0.15238525,-0.038674805,-0.007864603,-0.01229056,0.06673788,0.03453955,0.016087057,0.069070175,0.06553503,-0.13693196,0.059786193,0.10520544,-0.10237863,-0.063489854,0.006416482,0.024796406,-0.08203812,-0.01363886,0.043818757,0.0796062,0.09039967,0.049211502,0.092759684,-0.11604443,0.013344957,0.079413496,0.037980396,-0.13302445,0.073530935,-0.09174084,0.08246182,0.081544735,-0.0041220314,0.008654082,0.14884843,-0.031763088,0.16327478,0.088948295,0.13880065,0.02307644,-0.015933396,0.047919556,0.03503529,-0.094646715,-0.009678862,0.09688292,0.13992777,0.015255104,0.07185104,0.04286817,0.074824974,0.039583452,-0.035455067,-0.067209646,0.0073801475,0.027203782,0.0543788,0.16005184,-0.06489232,-0.058223195,0.052633625,-0.113926515,0.12618403,0.0890058,-0.13838688,-0.06528239,0.019592676
NZ_NXIE01000004.1_89(2),-0.042281512,-0.018487046,0.003210612,0.10681741,-0.15904821,-0.0008579255,0.018479142,-0.050706558,-0.102214724,0.098518156,0.08719802,-0.06239599,0.11331198,-0.016722264,0.0070170164,-0.011360054,0.1433005,0.111199975,0.060414217,-0.14210713,0.027903477,-0.10517318,-0.09730761,0.05020382,0.0623585,0.028737115,0.02721397,-0.014998271,0.0689894,-0.11561687,0.011958906,-0.0011316242,0.108667456,0.063829534,0.092853874,0.013792803,-0.071123086,-0.062377542,-0.013339778,-0.049671937,0.054356083,0.12335242,0.29487956,-0.0026626003,0.007992662,-0.021475468,-0.05456525,0.05478928,0.04459508,-0.02866035,-0.07738356,0.0074310983,0.10723005,-0.046515953,-0.044941857,-0.033238072,0.0064364,0.042853262,-0.0068437187,-0.09774287,-0.072540164,0.06600468,-0.009920392,0.08145497,-0.063912496,-0.104192734,0.081833504,-0.112366125,0.12963381,-0.050572794,-0.044756193,-0.013971808,0.058011066,-0.08867976,0.043896593,-0.036180366,-0.07629124,0.20357727,0.040252395,0.03458727,-0.11031868,0.03661799,-0.14706986,0.20125668,-0.016214896,-0.032109052,-0.023638796,-0.06328325,-0.009657781,-0.009290207,0.05787204,0.17698455,-0.102803096,0.030643279,-0.001910431,-0.0083815055,-0.022443473,0.020591311,0.029930057,-0.058300007,0.049631767,-0.043882307,-0.019165415,-0.082212485,0.056084633,0.04379686,-0.067282714,0.006993285,-0.07534737,-0.04192945,-0.0572061,0.045088727,-0.019187108,-0.021486498,-0.11400632,0.0601175,-0.21733198,-0.05788184,-0.03225532,0.06274345,-0.11130326,-0.10696665,0.097678445,-0.02682583,0.045517907,-0.11351508,-0.049185578,0.04008904,-0.09859855,-0.013674744,0.12628372,-0.09534089,0.047724687,-0.07984361,-0.045587867,0.0014246296,0.052897725,-0.018937808,-0.029435111,-0.029195901,0.11845144,-0.16591589,-0.01909713,-0.03632121,-0.04699176,0.13989666,-0.12470398,0.08196093,-0.050861202,-0.07227545,0.13511777,-0.087204196,0.14424469,-0.09576049,0.05405077,-0.18569782,0.12895994,-0.0015200818,-0.00647606,0.061363548,-0.06751201,0.24509878,0.039926317,-0.08234557,-0.13693592,0.07118796,0.014519293,-0.037909813,0.08635945,0.1503258,-0.09199976,0.0238913,0.122589074,-0.07136924,-0.13249591,0.0155463815,-0.011820195,0.07952165,0.12698197,0.039693315,0.036809124,-0.0238601,0.01104741,0.07842211,0.08297583,-0.020306926,-0.06768226,-0.009320709,-0.016419843,-0.05217201,0.07734317,0.15695974,0.11321522,-0.11153269,0.14360647,0.07559937,0.02623237,0.045231067,-0.02299465,-0.0606955,0.04706816,0.052199654,-0.066279836,-0.011363081,-0.0790175,0.021259515,0.030059239,-0.03765345,-0.27729604,-0.21899284,-0.021264885,0.056569196,-0.06998354,-0.07053155,-0.04270414,0.017948069,0.18169063,-0.06308266,0.10083276,0.016404213,0.021476367,-0.092510976,0.051977023,-0.012404528,-0.077028625,-0.17194006,-0.16737516,-0.013804232,-0.2568968,0.026883356,0.060046,-0.022014864,0.006487683,-0.031366706,-0.9952647,0.026675921,0.3079266,-0.053187717,-0.1273097,-0.07114297,-0.13711627,0.114422865,-0.021504343,-0.010499776,0.07392436,0.10186019,0.041202344,0.07124226,0.038632017,-0.105745986,-0.056223158,-0.010979399,-0.18444239,0.00013591931,-0.011162943,0.07546678,-0.110748895,-0.04403004,0.011818208,-0.09576278,0.22156584,0.0243743,-0.001042366,-0.025273899,-0.0641353,-0.030724913,-0.039462525,-0.12154682,-0.04842577,-0.09366196,-0.06773849,-0.012643701,-0.10143571,0.022520866,-0.06036776,0.038271096,0.027024783,0.0012117696,0.05655072,-0.02388678,-0.0077171037,-0.13522172,0.21696083,0.060945407,-0.09478991,-0.11897596,0.0054897405,0.032491956,0.021860074,0.08406128,-0.0076390374,-0.11083565,-0.10222041,-0.11497974,-0.084772326,0.105034836,0.005880364,-0.025857754,0.022252576,0.06628406,0.15734068,9.16649e-05,-0.13403858,0.07002686,0.045596194,-0.012501001,0.044756733,0.01712732,-0.0457531,-0.06989179,-0.029516488,0.04562696,0.11714627,-0.118486255,-0.033961337,0.04297712,-0.20923498,-0.10910975,0.044954564,-4.3423428e-05,0.0065372083,-0.11706773,-0.04282886,0.029511655,-0.042393815,0.05582359,0.004653775,0.027449602,0.13979517,-0.062887415,0.05706175,-0.13015802,0.12556744,-0.034721937,-0.15943821,0.040593415,0.17505352,-0.012515759,-0.1433116,0.08882015,0.19089614,0.0065807053,-0.0056141145,0.030202273,-0.052559633,-0.00887793,-0.05091467,0.026868075,0.07454221,-0.02427439,0.14366333,-0.08557251,0.1363462,0.010472085,0.13882735,0.042699236,-0.065677956,0.009382602,-0.07172277,0.09387126,-0.13899837,0.0031288036,-0.026505439,0.096713886,0.09703831,-0.02209375,0.03338755,-0.01847348,0.0239846,-0.020889001,0.19742727,0.12570667,-0.06721747,-0.092565075,0.086328015,0.16047172,0.008369255,0.17966598,0.12950481,0.08907182,0.042961773,-0.16255675,-0.008824125,0.039051622,-0.0016170122,-0.048005432,-0.083666824,-0.06857757,-0.029615272,-0.029131692,0.0037147189,0.14425004,0.11196084,-0.025164636,-0.017368017,-0.11696881,0.114193656,0.01957942,-0.005807154,-0.011765601,0.13243921,-0.08908186,-0.11852682,0.19177063,0.028379856,0.11459472,0.16984467,0.025953723,-0.00995827,-0.08706392,0.14685531,-0.024651293,0.003983569,-0.1348688,-0.06664022,0.10700418,0.059235398,0.12026885,0.0003259991,0.10798986,-0.028437944,-0.099217676,0.02210078,0.049334545,0.14928876,-0.0057192575,0.04207425,-0.025443783,0.093114495,0.09088332,-0.04359037,0.22309048,-0.058419187,-0.038746554,0.16855696,0.027340073,0.0103269275,0.015760854,0.029777175,0.007916047,-0.10280882,-0.035650484,0.04602447,-0.12065319,0.03004205,-0.036333166,0.07226548,-0.037771855,0.03487726,0.08803179,0.13175794,-0.10317105,-0.021085091,0.11779874,0.106486335,-0.057062328,-0.07985362,0.010392481,-0.061420515,0.20827866,0.13467969,0.094364464,0.029487645,-0.10971916,0.07156175,-0.100215055,0.039724268,-0.030389583,0.07093186,0.12742522,0.0054813926,0.006570689,0.17579092,-0.0138679985,0.01655403,-0.01025586,-0.06535629,0.1310803,-0.023401061,-0.038005304,-0.015852965,-0.09410707,-0.05880731,-0.03696403,0.14664674,-0.08861308,-0.045759354,0.05661928,0.06218822,0.08622912,0.061287526,-0.12814754,-0.02766301,-0.09266312,-0.009578123,0.023446815,-0.011913931,-0.014157073,-0.12504752,0.01341372,-0.13251323,-0.024866017,-0.10512055,-0.0218037,-0.11008741,-0.05304938,0.051920533,0.12845905,-0.13682579,-0.045291085,0.035665195,0.08242907,0.09687187,-0.15217482,0.059511192,-0.08994486,-0.023669066,-0.058304954,-0.032809686,-0.041598435,0.023651479,-0.13852546,-0.07240446,0.08212849,-0.06218012,-0.09854711,-0.0061199716,-0.008118402,-0.057824656,-0.027563201,0.04517181,0.18613885,0.03814636,-0.111364916,0.06726547,0.028032606,0.08348456,0.05631427,-0.2077209,0.10973488,-0.08350494,-0.046916105,-0.055489816,0.08129192,0.022596557,-0.055710215,0.12966383,-0.11898045,-0.04054239,0.09600436,0.015395932,0.09153568,-0.13525373,0.18035649,-0.07020803,-0.11847072,-0.1030639,-0.025731122,0.031842858,0.12375083,0.057917178,0.08217994,-0.054295056,0.037621617,0.15640432,-0.09023755,0.13425843,-0.06537592,0.16418342,0.050489027,-0.054300226,0.27691475,-0.0101491455,0.0044731298,-0.05438765,0.18342336,-0.07106383,0.09456425,-0.028254943,-0.124074,0.038082313,-0.023030039,-0.07687905,0.12028858,0.06115799,0.088119715,-0.023644751,-0.020720562,0.010375886,-0.027239334,0.0019731608,-0.028955752,0.028904552,0.14349398,0.07557685,0.055889614,0.1397524,0.050352797,-0.007344821,0.038450178,0.039575364,-0.08538269,-0.023163956,0.03955945,0.048156716,-0.009278493,-0.103804156,-0.041801125,-0.14385146,0.011794818,0.057012957,0.0828921,0.047797278,-0.038437758,0.0049645887,0.11408732,0.055064745,-0.021279627,0.12017472,-0.12520057,-0.00032156435,-0.03338358,-0.039768092,-0.0639401,0.02500602,-0.0020496522,0.033562887,0.07394886,-0.0010394591,-0.0007089325,0.028251417,-0.015315713,0.06498635,0.07325552,0.12040587,-0.023844456,0.04398354,-0.046211313,-0.040937316,-0.20539436,-0.09561422,-0.06670164,0.0881232,0.10838927,0.05053755,-0.019500464,0.06548922,0.03385552,-0.0011746781,0.12376921,0.06823191,0.1753477,-0.006776659,0.019381851,-0.03224391,-0.07006704,-0.03851469,0.060899053,-0.023807725,0.15408504,0.032853145,0.06605946,-0.11555569,0.011543951,0.13566259,-0.021309102,0.024917025,-0.018009882,0.069830336,0.062355366,0.011111808,-0.18282378,-0.037702724,-0.13807397,-0.09693493,-0.03254639,0.0433427,-0.016319271,-0.058647744,0.015650919,0.046553724,0.025234574,-0.04470792,0.16149278,0.14145416,-0.0560168,-0.023747252,0.16486326,0.14924474,-0.0394364,-0.15356556,-0.115798526,-0.107501015,0.0025644896,0.006934153,0.030892903,-0.015215247,-0.11366043,0.13188931,-0.029225595,0.0749571,0.04038549,0.029784428,0.0356573,-0.024404563,0.05910029,0.16712783,0.01853679,0.046019323,0.029583223,0.0049726823,0.03182548,-0.064891405,-0.0610877,-0.023535764,-0.05362344,-0.028019512,0.12125885,0.0337269,0.031894844,0.013627479,-0.029580802,-0.034079183,0.1260245,-0.0790207,-0.01874267,-0.07073685,0.066427626,-0.009220821,0.057572197,-0.069211535,-0.02657293,0.15466835,0.119090594,0.053437985,-0.0043904213,-0.12159947,-0.03453162,0.07150951,0.024271388,-0.058449827,0.08402006,-0.029270768,-0.06637588,-0.15345854,-0.12620234,0.10419179,0.12839004,0.04786111,0.12848704,-0.0010055542,0.07128034,-0.035948645,-0.014020242,-0.16098264,0.04455394,0.11462172,0.055247243,-0.06731496,-0.08048412,-0.13546062,0.1834976,-0.0054825214,-0.016660685,-0.03500757,-0.033722643,-0.06460991,0.042584617,0.026663791,-0.0382959,0.03376033,-0.05009224,0.11903377,-0.028886644,-0.002772227,0.13183893,-0.017843952,0.03599117,0.055890575,-0.085958146,-0.20205273,0.08636387,-0.076990485,-0.10734627,-0.058302756,0.049483925,0.16966395,-0.1064628,0.09511679,-0.12942752,-0.007928806,0.039222777,-0.04488657,0.21119912,-0.059002098,0.13063139,0.048872154,-0.015014121,-0.24695113,-0.07694478,0.010409795,0.1000715,-0.044605963,-0.14457515,-0.035824127,-0.023028038,0.097888775,-0.045075294,-0.056209918,-0.12894562,-0.029968174,-0.2025292,0.032947045,-0.13694128,-0.047297638,-0.008370299,0.028775193,-0.05743288,0.09022124,-0.027934756,0.034405984,0.1147527,-0.16916369,-0.021494213,0.009459552,-0.011309276,0.025498338,-0.2819705,-0.013918895,-0.11002743,-0.08063058,-0.0727563,-0.083599485,0.08877374,0.057775117,0.029908525,0.22454423,0.05653994,0.018291682,-0.08061654,-0.21992058,-0.056271236,0.06745411,0.061218787,0.047131766,0.13908477,-0.04972287,-0.02282023,0.09321028,-0.088016674,0.07424508,-0.21458234,-0.068227455,-0.0552727,-0.085924834,-0.026425641,0.07836626,0.13147011,0.03522505,-0.1061178,0.06811259,0.010095169,-0.10356746,-0.11585097,-0.021548532,-0.04039133,0.014153363,-0.14749442,0.0041393135,0.07546893,0.056657296,0.19279848,0.13359521,0.08177289,-0.005711143,0.03153034,-0.7319811,-0.06906864,-0.0033110199,-0.042201247,0.09856777,-0.03802375,-0.059364747,-0.08447633,-0.0071466463,-0.082185835,0.12901452,-0.013285867,-0.074329905,0.036628578,-0.050795585,0.115567155,0.101327315,0.101761006,-0.04663399,0.046023298,-0.0016960194,-0.1417623,-0.008974107,0.05697239,0.009213406,-0.07573668,0.045677174,-0.003245456,0.068204686,0.08005386,0.07136172,0.030596176,-0.06318343,-0.004674788,-0.082046546,-0.048936717,-0.0818772,0.013766781,0.059502285,0.036178783,0.057867933,-0.038549557,0.020747306,0.1096212,0.17281923,-0.073803015,-0.02338179,0.026914807,-0.056474812,-0.08885805,0.14018814,0.0071631805,-0.059276707,0.041174237,-0.018735508,-0.112342335,-0.11795277,-0.11645558,0.027410878,0.009442824,0.03024345,0.08278802,0.144908,-0.00879489,-0.009772948,-0.040885065,0.08917147,0.059688788,-0.008472146,0.03934183,0.15468183,0.016984846,-0.07178183,-0.09800357,0.14301501,0.03940487,0.056624908,-0.041453484,-0.12263034,-0.05486024,-0.069640934,-0.0067503857,0.025555475,0.024437627,-0.00393766,0.13656178,0.03793785,0.033546936,-0.008506806,0.03689492,-0.031264227,0.0058493605,0.11310666,-0.15867138,-0.077509955,0.13838427,0.14577255,0.024405055,0.00014331486,0.10683058,0.03938792,-0.008244857,-0.01866383,0.008213668,-0.0810291,0.04797725,0.10874467,0.053112827,0.0015315894,0.10254135,-0.057182822,0.016020436,-0.06881126,0.087104626,-0.017013518,-0.044949494,0.081052296,0.020461505,0.016443243,0.023558497,-0.033783704,0.026924355,0.06016285,-0.021295032,-0.06722998,0.040674355,0.022051029,-0.035883628,0.025517218,0.04264436,-0.03333888,0.018507356,-0.082999185,-0.14994954,0.076230355,-0.07179243,0.046935398,-0.03729496,0.050183065,0.24893226,0.09349163,-0.029188717,-0.049460933,0.09785017,-0.14908798,0.08793776,-0.04268223,-0.06469264,0.04518934,0.02483878,-0.07627479,-0.07237987,0.09788807,-0.07453669,-0.024327636,0.013142628,-0.01113196,0.037271615,0.08712475,0.23198675,-0.035024717,0.07114361,-0.01277213,-0.0107160155,-0.05345511,0.021239705,-0.028132783,-0.06891275,0.03573069,0.05570536,-0.037624758,0.08330171,0.00085103675,-0.11606847,-0.17527626,-0.043330252,0.11174919,0.04438509,0.003664443,0.051449534,0.027473632,0.11285278,0.013645981,-0.05412542,-0.16751845,-0.06433961,-0.06666422,0.21935661,-0.087870814,-0.03536905,0.037609685,0.18595345,0.019600261,-0.025739938,-0.016607195,0.0021993301,-0.0024841533,0.08128959,0.18622409,0.027210461,0.016508251,-0.020451928,-0.043752033,0.0065906746,0.16882493,0.046034288,-0.092574276,-0.16401783,0.12613845,0.04357339,-0.10317014,0.13593529,0.12827049,0.016955268,-0.14150181,-0.01524669,-0.027506577,-0.16882567,0.046389733,0.06791162,0.0027130644,-0.048964597,0.06457551,0.053806905,0.06704463,-0.030409284,-0.046698697,-0.20968151,-0.040984772,-0.033854257,-0.09370613,0.05368267,0.021415297,0.004451558,0.026993936,0.14372244,-0.09928242,-0.0043058307,-0.09693748,0.103061154,0.054571845,-0.049849603,-0.10256253,0.00011005727,0.07978531,-0.10880179,0.0019012801,-0.14055209,0.0264751,-0.0854575,-0.06481202,-0.0106250765,0.068929024,-0.051017046,-0.05731648,-0.0817529,0.025765734,0.049753107,-0.039952885,-0.04599433,0.08445202,0.01686375,0.06195864,0.019124959,-0.009146769,0.045578517,-0.10701722,0.036787394,-0.10171023,0.1817121,0.0736758,-0.04381964,0.012229299,-0.011865256,0.012473118,0.06063982,0.008944608,-0.04448959,-0.078534625,-0.10424211,0.036427815,-0.052122567,-0.01096648,0.046045266,-4.880542,0.015884334,0.021941705,-0.00015199654,-0.042876784,-0.09512619,-0.09075377,-0.1017258,0.17711753,0.014009788,0.099102646,-0.05493247,-0.053701717,0.03659804,0.06065828,0.08385094,-0.0041476046,-0.09300924,-0.034781206,0.00364681,-0.007068259,-0.029515056,0.037840743,0.072131425,0.028249048,-0.010808028,0.00920435,-0.08149885,0.20097968,0.15196308,0.0702316,0.078175984,-0.08175276,0.15000176,-0.0404185,0.13654326,0.07795817,0.048881594,0.19078346,0.032169085,0.007490133,-0.1009689,0.0816389,-0.03972971,-0.012969004,0.022644408,-0.0037432679,-0.03844231,-0.07969024,0.08581881,0.097178765,0.06113443,0.0066259834,-0.147398,-0.04445451,-0.004719451,-0.010352402,0.048451822,0.03430925,0.017183304,0.066938445,0.057286683,-0.12607701,0.055606965,0.106667526,-0.120057896,-0.04469704,-0.016075376,0.040759295,-0.07800081,-0.022387752,0.09791336,0.087448366,0.10768568,0.031467665,0.11695424,-0.093871504,0.029436352,0.08257061,0.04181531,-0.115124464,0.08349196,-0.071673356,0.081693016,0.087900326,-0.0017034896,0.0048527587,0.1409701,-0.02765414,0.1681552,0.090194,0.13040806,-0.00015376626,-0.026239546,0.031425532,0.05151609,-0.094944164,-0.025471414,0.08217082,0.15471457,0.0135747045,0.071990825,0.07282349,0.04162124,0.038572658,-0.042657,-0.08398361,0.013788354,0.03573506,0.037462827,0.15023687,-0.033672918,-0.060877096,0.046700176,-0.11207046,0.1453993,0.09545503,-0.13728972,-0.09827333,0.035350643
NZ_NXIE01000004.1_89(3),-0.021383697,-0.017592678,0.005077563,0.08427815,-0.17264788,0.012140436,-0.002303117,-0.041078236,-0.055788126,0.095516086,0.06140283,-0.052031238,0.09680001,0.022434346,-0.02097786,0.0052784923,0.1611262,0.110532805,0.051206708,-0.14972201,-0.013982091,-0.050157104,-0.078224905,0.06742571,0.049555745,0.014689602,0.010273167,-0.039705113,0.06788514,-0.110121764,0.006735657,0.009670303,0.05738449,0.036694847,0.054691162,0.024541235,-0.05056282,-0.045001175,-0.03199882,-0.0813143,0.025091583,0.12604135,0.2510705,-0.028418487,0.043528017,-0.028926687,-0.04497821,0.07434953,0.09185096,-0.041269816,-0.060120698,0.022268146,0.14035787,-0.03322309,-0.052820317,-0.030181235,0.0041611535,0.02132846,0.001775756,-0.112002864,-0.082906336,0.051612932,-0.011778029,0.055562846,-0.035243977,-0.090594195,0.06625517,-0.08650108,0.10916701,-0.0093421815,-0.048087284,0.002791937,0.066719376,-0.09844719,0.048006106,-0.038601205,-0.090750486,0.17467926,0.014539855,0.003463364,-0.10716804,0.029274432,-0.13559012,0.16445541,-0.01110554,0.003347395,-0.03053907,-0.04942335,0.022375697,-0.0003247807,0.03208079,0.123725176,-0.05808264,0.055787012,-0.021244755,-0.027041381,-0.027257396,-0.002035234,0.028209643,-0.04972139,4.5517416e-05,-0.038838904,0.015117852,-0.086427875,0.060828824,0.037374098,-0.044805568,-0.006753401,-0.10200762,-0.09173899,-0.06973495,0.034687888,0.005101654,-0.00268921,-0.07549553,0.03871888,-0.17724618,-0.06968682,-0.01611341,0.053222734,-0.11198199,-0.09952847,0.11827214,-0.012554276,0.013476967,-0.08035559,-0.07479361,0.038625676,-0.08523177,0.01727077,0.10148941,-0.039804798,0.046840582,-0.051159702,-0.013331846,0.0041054827,0.014190455,0.0053853597,-0.035260305,-0.017061746,0.092584066,-0.12281749,-0.0104364585,-0.013098618,-0.06800091,0.069682896,-0.14601201,0.04071383,-0.02723992,-0.06529517,0.12512437,-0.070123404,0.1527839,-0.0654449,0.10351455,-0.1814029,0.107652396,0.011831598,0.0074712746,0.04985479,-0.0350382,0.21210235,0.007990886,-0.096549116,-0.099901564,0.046276808,0.007563671,-0.020695873,0.085753895,0.13656841,-0.08111954,0.0369812,0.091868125,-0.07022361,-0.07684469,0.008838835,-0.013156172,0.06913071,0.09539863,0.029291026,0.0015074023,-0.017681122,-0.0077093476,0.05440992,0.094943635,0.011675979,-0.025451766,-0.026211778,-0.025420517,-0.06432158,0.08451639,0.107935645,0.10482935,-0.08727187,0.11134976,0.0818516,0.014272368,0.047201537,-0.03111658,-0.04926659,0.06821887,0.023661174,-0.03775515,0.008443201,-0.03966933,0.02815423,0.012321747,-0.018422512,-0.2222137,-0.18332313,-0.0028027322,0.034726974,-0.066210285,-0.0522704,-0.058789477,0.032105174,0.17652902,-0.062264223,0.070546135,0.01060005,0.038014695,-0.09016336,-0.000609452,-0.0037053986,-0.045479007,-0.17081489,-0.11744271,-0.031453405,-0.22687873,0.043092847,0.07563989,-0.025139151,0.015651736,-0.017718108,-1.3741524,0.020070681,0.26900703,-0.032575037,-0.09720925,-0.076903395,-0.132931,0.0909857,-0.026765335,-0.028947292,0.063746765,0.11698641,0.045199633,0.05187748,0.036767967,-0.093200736,-0.010631992,-0.014367701,-0.17066951,0.0063704243,0.008844138,0.08959817,-0.077736944,-0.032591846,0.037250016,-0.07090809,0.24464636,0.006348821,0.0007532926,-0.02512015,-0.054637548,-0.021527251,-0.0021797044,-0.15564738,-0.032422747,-0.0876512,-0.10343189,0.038007926,-0.10600641,-0.029328475,-0.028149225,0.03575259,-0.029324431,-0.026453476,0.05383175,-0.0032220264,-0.030967163,-0.12741743,0.15990725,0.047371987,-0.06960893,-0.10835451,-0.01904088,0.0021560555,-0.018928744,0.047341246,-0.04858422,-0.08699412,-0.069862105,-0.0690198,-0.06320896,0.10671095,-0.0008060473,-0.013964818,0.0134716295,0.06507054,0.102281444,-0.018724725,-0.123493984,0.011113581,0.027332041,-0.02879581,0.04380424,-0.012652682,-0.02306307,-0.034913275,0.012110583,0.04958312,0.077731945,-0.112403184,0.008796345,0.08822037,-0.16414475,-0.06319774,0.014423584,0.0003868403,0.013012187,-0.099762455,-0.04568627,0.0107763335,-0.0005297811,0.10540533,-0.0081584975,0.05124529,0.11646922,-0.04123403,0.06871943,-0.14721966,0.10464191,-0.028740384,-0.13035078,0.048487466,0.16985513,-0.03733442,-0.1447583,0.053092603,0.111921184,0.0057137245,0.011249371,0.048193455,-0.053725645,-0.030458957,-0.07719039,0.001679517,0.07822959,-0.012256233,0.13036895,-0.073359296,0.13718475,0.00079569226,0.12408018,0.0273775,-0.0027315053,-0.014183832,-0.084225506,0.09434908,-0.10348838,0.0030359516,0.016448133,0.098655984,0.10927141,-0.029693166,0.019099144,-0.024978802,0.002535778,-0.005625885,0.15913104,0.13824783,-0.084398255,-0.07407504,0.05716283,0.155646,0.018103752,0.16884877,0.0992861,0.07365334,0.054450225,-0.20844238,0.0053844466,0.07219572,0.03430043,-0.04416311,-0.09262449,-0.049526166,-0.041838452,0.0036506422,0.0015651812,0.12836915,0.05040021,-0.010625904,-0.050203912,-0.10545565,0.08621312,0.016755959,-0.03515184,-0.01363858,0.11721711,-0.039083794,-0.10851336,0.17639937,0.027159484,0.09644446,0.17395575,0.03646371,-0.0026692357,-0.075146705,0.1113558,-0.022606542,0.017505733,-0.074385874,-0.09595405,0.03759773,0.05276309,0.088626385,0.0034328308,0.120107695,-0.030714097,-0.10823152,0.022304974,0.08467829,0.15054445,0.013704602,0.050724037,-0.019328753,0.10094789,0.096376576,-0.074497536,0.19054314,-0.043905154,-0.016481945,0.1624777,0.058765747,0.029235592,0.030661827,0.03536074,0.004719592,-0.08796716,-0.040581603,0.04453519,-0.13730088,0.05506909,-0.039706223,0.052254353,-0.07722136,0.0019761703,0.071639426,0.123765856,-0.07443847,-0.013200344,0.07159371,0.09575978,-0.03956133,-0.08536511,0.0002819873,-0.0012914422,0.18245843,0.13757282,0.07019554,0.03322934,-0.12225243,0.053713407,-0.06279382,-0.013107621,-0.012565536,0.022225587,0.11143994,-0.010549287,-0.015743483,0.119874366,0.012216182,0.049286332,-0.0077515403,-0.05446232,0.11236443,-0.019544471,-0.06297984,-0.042314757,-0.06642964,-0.039201386,-0.043243133,0.1522582,-0.09399375,-0.022033557,0.03927226,0.06004657,0.051784348,0.089374445,-0.12521699,0.013148574,-0.10311183,-0.03659801,0.003546453,0.0033598652,-0.023548989,-0.12899089,0.0043436913,-0.12363959,0.03919132,-0.09660501,-0.022731362,-0.07343362,-0.035043653,0.04104546,0.15451406,-0.10588346,-0.09156139,0.01613287,0.05195032,0.0939019,-0.11028685,0.04676233,-0.074953236,-0.022195121,-0.027944446,-0.005781291,-0.009418194,0.049284294,-0.12651294,-0.0645828,0.045651753,-0.058668282,-0.0633151,0.0005565635,0.003306159,-0.04577879,-0.007148818,-0.007765477,0.13301569,0.009332113,-0.06636804,0.06393749,0.018826172,0.062684864,0.103679135,-0.19658877,0.1106155,-0.06967771,-0.016682247,-0.099094644,0.05498896,0.0057566576,-0.08211324,0.10115494,-0.07039143,-0.02473265,0.15063648,-0.0050337254,0.07363971,-0.11004181,0.19213042,-0.05287178,-0.10334765,-0.07462538,0.02675148,0.008914664,0.080119915,0.07288181,0.088921115,-0.034980495,0.017791348,0.12723833,-0.07519605,0.10989534,-0.022642154,0.11114627,0.05050215,-0.026944328,0.26773503,-0.041005917,-0.04756061,-0.056591243,0.19236557,-0.059016492,0.09261414,-0.036931217,-0.11062058,0.057114795,-0.062688865,-0.06289289,0.11566162,0.07866926,0.074433595,-0.013338624,-0.052566826,0.07893365,0.013044641,0.03386266,-0.012547837,0.005503019,0.13124128,0.06399231,0.03348893,0.09973205,0.0063911183,-0.0098700775,0.042375196,0.03810957,-0.10839263,-0.020009052,0.0730536,0.07047453,0.016452115,-0.0826337,-0.058198165,-0.1741463,0.016833732,0.08695301,0.055254977,0.025937486,-0.09124386,0.02350176,0.08917044,0.07695787,-0.02280062,0.10432616,-0.0926221,0.022547293,-0.06671164,-0.033444367,-0.06958829,0.054240394,-0.010478695,0.051323652,0.07045848,0.0089638475,0.003827167,0.022232918,-0.00081603945,0.07666327,0.052899066,0.13140652,-0.011581998,0.065331705,-0.061714843,-0.035909202,-0.17924863,-0.03911645,-0.0474885,0.06309872,0.1322145,0.07178133,0.009286738,0.043991596,0.01770006,-0.019430289,0.11085924,0.017240059,0.1553637,-0.00047880728,0.064603195,-0.036452927,-0.09457046,-0.037866645,0.04470413,-0.014635943,0.087575346,0.051394813,0.07723565,-0.052410487,-0.0008266295,0.11689474,0.009732338,0.021816757,-0.037686933,0.06060402,0.09599733,-0.01706919,-0.19373772,-0.044392098,-0.10017681,-0.07281539,-0.060543403,0.046365198,0.009054072,-0.06956094,0.011742419,0.023049193,0.02616624,-0.030843535,0.11701851,0.1193864,-0.042288262,-0.03463604,0.16219506,0.11894409,-0.05565454,-0.11621968,-0.113008484,-0.1187521,0.041842762,0.001714785,0.014220792,-0.0307953,-0.09044475,0.10000312,-0.015989933,0.08626656,0.034309432,-0.022960616,0.03374378,0.019366654,0.030552803,0.13324149,0.05852165,0.029327665,0.010131226,-0.0013551587,0.042908866,-0.068612896,-0.087283745,-0.029288026,-0.08782737,-0.030186059,0.12502594,0.041851643,0.06488828,0.041550253,0.0077423155,-0.042043436,0.14149104,-0.075290546,-0.007094077,-0.082936145,0.02462199,-0.025313567,0.07299915,-0.09531371,0.030849762,0.12995343,0.14643425,0.050874013,0.04501878,-0.19473834,-0.06763067,0.096019894,0.0060822666,-0.032181967,0.0748113,0.027401784,-0.07297403,-0.09772553,-0.13051489,0.13708639,0.08229149,0.036048234,0.18940605,-0.012556673,0.059920084,-0.0012332015,-0.029763358,-0.08460741,0.059060093,0.12749574,0.050807014,-0.05174317,-0.10791089,-0.11684309,0.16658403,0.0066793663,-0.032329194,-0.05023085,-0.004692065,-0.062480416,0.020611877,0.05227543,-0.0049386914,0.05531534,-0.032924965,0.13867506,-0.003845683,-0.007629919,0.14606428,-0.013728682,0.03716733,0.039062325,-0.06095837,-0.16721869,0.07297737,-0.07685643,-0.07884889,-0.05591261,0.020728154,0.13188875,-0.095995836,0.094429046,-0.1282596,-0.029491069,0.046571154,-0.053362045,0.18975316,-0.055058658,0.12743765,0.071767576,-0.014174288,-0.22528902,-0.09610288,-0.016037414,0.051860932,-0.017404946,-0.11227646,-0.06003649,-0.01746077,0.08508488,-0.060712457,-0.0075045633,-0.13106619,-0.04563376,-0.17867893,0.017979113,-0.11420686,-0.040771022,-0.0082787555,0.02111385,-0.049486663,0.07814828,-0.012565862,0.049001724,0.13478522,-0.15579864,-0.04398401,0.02694341,-0.029514417,0.07992886,-0.27582672,-0.053556472,-0.06926055,-0.07930748,-0.042961515,-0.077727094,0.05602485,0.07098748,0.017522058,0.20318115,0.0046181316,-0.008954262,-0.07563355,-0.18998212,-0.022101056,0.052105665,0.036582496,0.06359123,0.101648636,-0.06624947,-0.023748953,0.10115411,-0.08086634,0.06886056,-0.15016776,-0.07806976,-0.007867092,-0.111342736,-0.023318695,0.032674957,0.11722398,0.0650996,-0.0826877,0.10187623,-0.029321613,-0.11440904,-0.09238958,0.01642429,-0.016872592,0.025196569,-0.13564974,-0.0060227085,0.091134116,0.053158607,0.18268816,0.10951248,0.08468088,-0.0022318128,-0.008127891,-0.6219735,-0.04655353,-0.009184313,-0.023925565,0.075495794,-0.044574007,-0.012018266,-0.0827639,0.01834355,-0.071463,0.095921315,0.03630966,-0.039925415,0.04277492,-0.021760283,0.028320042,0.11036085,0.12353303,-0.03290407,0.030297242,0.002772674,-0.10611012,0.030082367,-0.0005387867,-0.017777486,-0.065984316,0.016147964,-0.015800586,0.0663755,0.081916966,0.067571394,0.035294987,-0.035040714,-0.010085798,-0.091114715,-0.029012533,-0.09337828,0.039433036,0.050901186,0.057284232,0.050313313,-0.041377153,0.008569603,0.1200932,0.17362978,-0.103200905,-0.0035155758,-0.02103856,-0.03800155,-0.073474444,0.13592114,0.02982018,-0.07048752,0.016830545,-0.016139455,-0.11046518,-0.113387935,-0.09967321,0.011171589,0.024902534,0.009597639,0.033866897,0.16709319,-0.0019028484,-0.037598718,-0.026867436,0.047248438,0.053738605,0.034393165,0.009722553,0.13592835,0.021666039,-0.08805182,-0.09704665,0.15843701,0.03413194,0.034902114,-0.030876126,-0.10041418,-0.026676524,-0.08008311,-0.025779855,0.080344215,-0.006316074,0.0029694606,0.09258275,0.06500966,0.045123223,0.017432746,0.0226274,-0.031371478,-0.0011767118,0.09595793,-0.1642834,-0.04165835,0.126484,0.1375201,0.03680759,-0.0032894553,0.11137919,0.084586605,0.01704874,-0.024836518,0.02155299,-0.039639544,0.06803802,0.09513297,0.022511126,0.031411342,0.09876914,-0.07450724,0.036082987,-0.05975771,0.060301423,0.0037565145,-0.008660399,0.12057877,0.012928886,0.055469804,-0.0058162753,-0.030310404,0.012450783,0.009271523,-0.032584608,-0.018122485,0.09556779,-0.012204579,-0.019089067,0.032641925,0.046682842,-0.06890186,0.041125506,-0.09769191,-0.105743736,0.08614093,-0.03771884,0.028183917,-0.053462423,0.057685986,0.2338928,0.08709734,-0.038389612,-0.05012882,0.095498785,-0.12011028,0.066973574,-0.00560475,-0.07873841,0.0075715184,-0.005634329,-0.05735341,-0.057803128,0.0999647,-0.07640004,-0.058842387,0.033661153,-0.012364835,0.015637897,0.097928576,0.18675682,-0.012429738,0.073074415,-0.027580237,-0.012882551,-0.059604954,0.029639123,0.0016471396,-0.03107059,0.01873789,0.052237388,-0.07409747,0.045363527,-0.012600891,-0.0993281,-0.12751037,-0.049291447,0.17480476,0.054056562,0.0002019419,0.07211229,0.044637118,0.08001154,0.020896774,-0.0448036,-0.12084588,-0.034000207,-0.06814387,0.20576672,-0.058914114,-0.05011642,0.041592907,0.15038125,0.0053370264,-0.017517393,-0.01225806,-0.011772617,-0.06640121,0.04840383,0.17757168,0.0061810534,-0.0075065293,-0.030121932,-0.016348267,0.033155214,0.17586464,0.055990145,-0.068114705,-0.151499,0.11226856,0.039217528,-0.07473015,0.09176013,0.10194497,0.009342991,-0.14032458,-0.035250854,-0.07526437,-0.15857232,0.014632366,0.060348764,0.0014084061,-0.032682683,0.09280913,0.07268452,0.07396903,-0.047990035,-0.031712987,-0.15842567,-0.050758027,-0.04875233,-0.10986938,0.03389494,0.031179314,0.003605912,0.038198814,0.12189777,-0.12100068,0.009999861,-0.07357081,0.12954348,0.043509956,-0.078668274,-0.09234396,-0.0018642044,0.08332513,-0.08516521,-0.0039618765,-0.110895954,0.027952434,-0.07239842,-0.062365167,0.043688506,0.06590638,-0.042979993,-0.08127655,-0.06449577,0.0008323502,0.0319263,-0.03507791,-0.022308875,0.061492972,-0.003926152,0.04819662,-0.009543108,-0.045127265,0.059382938,-0.12126083,0.061977103,-0.061780374,0.19554329,0.0588199,-0.024118012,0.023822274,-0.015031018,-0.022169292,0.06504045,0.008596313,-0.067278735,-0.06686157,-0.08882305,0.031644594,-0.025015868,0.0026446877,0.055646457,-5.843758,0.055099063,0.018326523,0.012515654,-0.050171014,-0.1389929,-0.10635871,-0.09756148,0.14713341,-0.02411228,0.13222781,0.00037996608,-0.05141844,0.044833604,0.058593784,0.10828344,0.024321517,-0.086411245,-0.048435327,0.011897583,-0.010425306,-0.022716334,0.03610874,0.03590433,0.016771102,0.014852058,0.020826044,-0.07692798,0.22148012,0.14787658,0.03846077,0.08686865,-0.074262366,0.17169726,-0.018914329,0.13435405,0.12131902,0.016504664,0.1971697,0.061054774,-0.03140553,-0.07118386,0.0711704,-0.026545547,-0.012040195,-0.0009045496,0.017822536,-0.037797187,-0.089703955,0.11715043,0.10375124,0.0601706,-0.0072209323,-0.13612913,-0.04244693,-0.012973002,0.004356979,0.065831006,0.006456054,-0.0026193156,0.08303136,0.06774613,-0.10541831,0.04899567,0.10371929,-0.08077011,-0.035692435,0.035728414,0.06703576,-0.07248967,-0.022328647,0.10342933,0.079540074,0.0700603,0.030198995,0.12508984,-0.03542104,0.025092037,0.09333137,0.04024999,-0.08374344,0.11029542,-0.07882604,0.05884575,0.07220954,-0.039840706,0.025165996,0.1000188,-0.031832237,0.14674102,0.076545335,0.15160608,-0.04249164,-0.01270899,0.017342405,0.033244714,-0.1554041,0.013880097,0.063964695,0.0903401,-0.01436515,0.119623974,0.048811432,0.014961409,0.000563048,-0.0507054,-0.08251761,0.033388376,0.034835316,0.035222508,0.114741005,-0.030421823,-0.04389559,0.0655074,-0.114230014,0.13426538,0.0960556,-0.07234398,-0.060879797,0.013447482
NZ_NXIE01000004.1_89(4),0.0036431905,0.016621329,0.00888098,0.09927281,-0.1446687,-0.00096362445,-0.0034775755,-0.049861923,-0.032896534,0.06035468,-0.0033801948,-0.008645032,0.11385232,0.0069156745,-0.024202498,0.0040291306,0.1168972,0.039765354,0.05319738,-0.12050148,-0.02461033,-0.06565993,-0.04631943,0.053775523,0.034271456,-0.0062576,0.010542904,-0.05154913,0.054268908,-0.083102755,0.03548002,0.013453402,0.075797476,0.03606966,0.061535392,-0.032963675,-0.007653669,-0.042541746,-0.030064516,-0.089343295,0.041907623,0.12081187,0.2082184,-0.04007204,0.025323201,-0.043047067,-0.027553761,0.08212557,0.09124395,-0.056827832,-0.07331906,0.021057518,0.13330886,-0.032649357,-0.0392049,-0.029000832,0.010254312,-0.025428511,-0.00052224624,-0.09371241,-0.103844136,0.03948239,-0.0019021067,0.041389532,-0.07109368,-0.0777222,0.09303969,-0.06378248,0.07402084,0.019242719,0.009913446,0.007865538,0.036744807,-0.052122075,0.046108995,-0.053652033,-0.070919216,0.19087124,0.037060432,0.03301333,-0.08225822,0.012679126,-0.08037758,0.12000244,0.012544818,0.033632487,-0.03814797,-0.028853126,-0.003287715,0.0021831167,0.05075044,0.10370502,-0.05461262,0.027530301,-0.013145948,-0.056188874,-0.032361656,0.0020745795,0.0180979,-0.006879406,-0.0051417165,-0.0011653184,0.02093412,-0.07126037,0.08791808,0.0731131,-0.059843525,0.016825859,-0.11256981,-0.11774104,-0.054486915,0.019428428,0.0148483515,0.0060652075,-0.07430386,0.056694012,-0.13225994,-0.08664578,-0.05398297,0.051937398,-0.096278965,-0.10438615,0.10655146,-0.012864466,0.02693859,-0.06002719,-0.036491755,0.06668018,-0.03134214,0.033431146,0.117102854,-0.046511784,0.05385591,-0.033338916,-4.122103e-05,0.0075547686,0.034215067,-0.04707748,-0.012127825,0.0035057457,0.085329294,-0.14809096,-0.03313118,-0.021713464,-0.07442232,0.059653193,-0.09938105,0.028975181,-0.027847635,-0.050169867,0.049851865,-0.06842976,0.14358027,-0.062276393,0.11010107,-0.17114975,0.108082026,-0.0029097972,0.044492897,0.043125782,-0.01754081,0.18331298,0.019348541,-0.07879435,-0.09029722,0.061793294,-0.0051027127,-0.030860834,0.10362434,0.10025735,-0.10644544,0.028966414,0.043878697,-0.04488724,-0.06665453,0.031786986,0.013254251,0.048217684,0.083213195,0.06445554,0.048587665,-0.009608156,-0.050362393,0.023572758,0.0619698,-0.0029948244,0.014364379,-0.015596818,-0.066498175,-0.07295647,0.06996415,0.09744922,0.06667468,-0.10606188,0.09251486,0.08303414,0.027368143,0.057178408,0.007857151,-0.04475768,0.06474911,0.014385121,-0.024853261,0.022720216,-0.08693337,0.023461692,0.030206349,-0.025797777,-0.17839548,-0.19161205,0.032806404,0.0427183,-0.025075749,-0.0038959673,-0.05372942,0.05041899,0.14064804,-0.020098064,0.08052377,0.01804236,0.046090286,-0.0545518,-0.0251036,0.03359062,-0.031201916,-0.1283209,-0.106406644,0.0128643,-0.2235144,0.07598647,0.093707755,-0.020796012,0.027308358,0.031349853,-1.6852537,0.016091533,0.21747409,-0.034030177,-0.07584869,-0.034221794,-0.13559042,0.073706135,-0.027642772,0.0012671192,0.09183466,0.09633768,0.04467706,0.08010494,0.09635854,-0.087020956,0.013389806,-0.038540337,-0.16741304,-0.022158261,0.012195069,0.06699576,-0.09094933,-0.031883314,0.012494458,-0.053853825,0.21965605,0.015833337,0.0041011465,-0.0055046296,-0.062340263,-0.003963584,0.009351662,-0.120409645,-0.041145474,-0.09584173,-0.072155684,0.06843259,-0.06679594,-0.0117775565,-0.029582031,0.02949543,-0.030059505,-0.006517758,0.038838558,-0.020961603,-0.043658547,-0.11690719,0.13266584,0.039288905,-0.037906006,-0.06440156,0.005236264,-0.00091646006,-0.0018910319,0.0242352,-0.021252854,-0.09092222,-0.10062055,-0.0351397,-0.04013823,0.07852736,-0.020657122,0.0029575645,0.015672937,0.05094517,0.09981959,0.004177166,-0.10580669,-0.0063310373,0.0040366543,-0.03615232,0.049637884,0.02311343,-0.02627369,-0.041588906,-0.010995807,0.030339459,0.05563452,-0.1101463,0.049357537,0.08141842,-0.11718866,-0.07504405,0.07477346,0.007662656,0.012539216,-0.10599472,-0.02310208,-0.010580434,0.02097853,0.06332878,0.031796075,0.06381515,0.1282768,-0.0062581752,0.043126844,-0.10436502,0.07317078,-0.015307403,-0.1619315,0.054870214,0.14987196,-0.052458145,-0.1444574,0.037288588,0.059365947,0.026561907,0.0030498002,0.027224122,-0.046964843,-0.028788604,-0.088311814,0.020649998,0.048686977,-0.0005769341,0.15385978,-0.072170235,0.0823541,-0.014300118,0.14514573,-0.0026867036,-0.010053281,-0.026826575,-0.068956904,0.061607286,-0.108369894,0.0111957565,-0.03628786,0.08758089,0.108784,-0.034263752,0.03059612,-0.054718282,-0.003970713,0.0077401665,0.09382868,0.12644082,-0.1188935,-0.07802711,0.03294325,0.122560106,0.04250531,0.13586651,0.101150334,0.048364565,0.054605316,-0.16259378,0.062273256,0.051676217,0.044996962,-0.027867286,-0.071022525,-0.060505122,-0.044615373,0.027081586,0.0072083296,0.084261365,0.06140573,-0.011160816,-0.03089524,-0.111575015,0.02598577,0.0034803452,-0.05082471,-0.03924045,0.114360966,-0.0121629825,-0.07319767,0.11630987,0.02239901,0.105807364,0.16028078,0.05618671,0.0014642568,-0.12065004,0.14716844,-0.00035767865,0.052343633,-0.053463284,-0.06299394,0.048523825,0.081014924,0.087608896,-0.018575462,0.14065589,-0.029282056,-0.111423105,0.030169558,0.04871685,0.11616034,0.027153788,0.042435393,-0.051754747,0.116619,0.111477695,-0.09048534,0.16691892,-0.027435897,0.018827256,0.13514505,0.050071318,0.020332037,0.044112083,0.0067638783,0.018846298,-0.11019551,-0.06417551,0.033387493,-0.14755538,0.0395235,-0.030030636,0.045618262,-0.07654921,-0.024396716,0.09849057,0.114130124,-0.03935294,-0.0082866335,0.08462129,0.07743444,-0.013251956,-0.12193543,-0.011859775,0.01580857,0.12032131,0.13912643,0.0767849,0.021588035,-0.10586539,0.049496885,-0.031169476,-0.04535003,0.030429699,0.002657409,0.078920275,-0.020477744,0.031246172,0.10524383,0.0022102837,0.040007252,0.009304903,-0.09675225,0.09780846,0.0024331908,-0.017006567,-0.029798122,-0.073832214,0.010777593,-0.04224885,0.17311895,-0.04966057,-0.02777193,0.06779689,0.042718187,0.053967196,0.07368585,-0.09275041,-0.031882457,-0.08042998,-0.03364205,-0.008136804,-0.022817004,-0.025587646,-0.09505367,-0.019924415,-0.095362455,0.031106696,-0.06590727,-0.013584192,-0.030472437,-0.015469841,0.033263423,0.14096105,-0.112519406,-0.13042584,-0.026703076,0.05120689,0.092847764,-0.10488709,0.03341134,-0.07496858,-0.024009874,0.0100160455,0.0151101705,0.006043017,0.00017626805,-0.14311935,-0.073051445,0.041311637,-0.040257312,-0.089929804,-0.021418722,-0.0120031955,-0.048527937,-0.0015588346,0.0068846196,0.1262195,0.01983984,-0.028874623,0.07558306,0.014474063,0.026997318,0.057555147,-0.19865724,0.09793202,-0.07881536,0.008059012,-0.08828124,0.05686341,-0.044705443,-0.07249988,0.05471211,-0.065859176,-0.022753349,0.12983802,0.010947002,0.056705188,-0.07787376,0.17605698,-0.036009103,-0.05824563,-0.10220395,0.012456439,0.033789888,0.07026285,0.0504728,0.08181304,-0.06370217,-0.008257658,0.096994005,-0.043673787,0.07452206,0.016449707,0.09426214,0.035727758,0.0026969651,0.22355336,-0.03537279,-0.02218745,-0.029951537,0.13663633,-0.08247116,0.074026495,-0.058479875,-0.1314641,0.070524916,-0.08918285,-0.037068482,0.11567593,0.058655094,0.004972613,-0.0067924852,-0.07126892,0.066249825,-0.034157738,0.07975131,-0.01951927,-0.004727838,0.119594485,0.034957547,0.045800775,0.068408005,0.006470424,-0.03413878,0.040193114,0.035008866,-0.10210265,0.0042041265,0.033542115,0.027775597,0.06848081,-0.0701582,-0.04334307,-0.17735392,0.0046302676,0.09370332,-0.0015213032,0.03962801,-0.06493339,0.035346873,0.05363682,0.09489284,-0.012509514,0.09033443,-0.021256557,0.052925944,-0.02566632,0.007360273,-0.06139574,0.033418596,-0.011801638,0.030902361,0.07167126,-0.014358516,0.00967864,0.033749882,-0.008953124,0.078071244,0.047652293,0.087020636,-0.014367118,0.08298121,-0.028903546,-0.026864829,-0.14234687,-0.012010224,-0.01124193,0.04317656,0.14228041,0.1303353,0.036147114,0.027198363,-0.017562665,-0.062450152,0.12443571,0.031241087,0.12997346,-0.026566872,0.048392795,-0.009968065,-0.07621332,0.009268242,0.06971996,-0.072502576,0.062473282,0.06387398,0.07739476,-0.021609213,-0.009662759,0.093348175,0.004405952,0.024804404,-0.015502727,0.09892001,0.118542574,-0.011854344,-0.12872784,-0.027878596,-0.10379978,-0.06391081,-0.054501053,0.014008427,0.02638822,-0.0298597,0.019490173,0.039827578,0.0172236,-0.005926305,0.1144206,0.13183226,-0.053054314,-0.031033568,0.107373886,0.12018518,-0.041913323,-0.060123928,-0.09627876,-0.10737649,0.07846879,-0.026812676,0.047966532,-0.06068819,-0.019127937,0.10274094,0.0077310833,0.07984848,0.07271413,-0.047673706,-0.012793439,-0.0030160078,0.06545048,0.09588255,0.079070695,-0.022958102,0.021491626,0.005924863,0.05696747,-0.08041107,-0.08825146,-0.0037817801,-0.051245097,-0.03713698,0.09917096,0.02682635,0.045043975,-0.010957389,-0.020885848,-0.058564562,0.11792856,-0.097787425,0.048216946,-0.070981346,0.043226007,-0.053505525,0.07272317,-0.059369497,0.057179615,0.0727414,0.1364784,0.048537984,0.073281705,-0.07126967,-0.07427586,0.026198545,0.0432781,-0.028268777,0.100717776,-0.0075838775,-0.060408607,-0.09272451,-0.10595409,0.13028027,0.10631056,0.026516393,0.19852778,-0.032515217,0.06994494,0.027524123,-0.06512,-0.012276994,0.07252659,0.08661272,0.044813808,-0.02107041,-0.12153464,-0.11073985,0.1381736,-0.038879674,0.014177536,-0.008307808,-0.016564073,-0.05011675,0.042247005,0.030682918,-0.007993062,0.048283678,-0.0018875146,0.10181004,-0.0033172516,-0.013360376,0.13679396,-0.00539408,0.012337679,0.053430982,-0.07525624,-0.11362802,0.07003669,-0.044064768,-0.062154263,-0.039345983,-0.016138433,0.11838581,-0.10433221,0.07672347,-0.11605954,-0.042733416,-0.011459573,0.0013203687,0.1707473,-0.0488866,0.11879359,0.026002,-0.033255868,-0.1951328,-0.098431,-0.0007372145,0.027245322,-0.020217432,-0.083528295,-0.043731492,-0.014520996,0.060019605,-0.028371535,-0.015510218,-0.100203186,-0.0039954316,-0.13562924,-0.019828014,-0.14225973,-0.05825085,-0.033050854,-0.0015560918,-0.03726094,0.094626956,0.008811186,0.07014318,0.12344529,-0.13351062,-0.032359965,0.015703628,-0.0013904372,0.10202362,-0.21437928,-0.046597496,-0.046150684,-0.080773644,-0.0141801005,-0.103105634,0.0055996682,0.056783922,-0.009507134,0.19033854,0.013631173,-0.030551143,-0.0444948,-0.17945363,-0.014445989,0.048044592,0.029729366,0.050811008,0.10779032,-0.034199473,-0.017362915,0.06285437,-0.06587967,0.023416672,-0.13879402,-0.10305266,0.03447743,-0.08944358,-0.031820603,0.03268872,0.13190971,0.08771605,-0.08886851,0.116335094,-0.0125722755,-0.09590226,-0.018824741,0.017750708,-0.01747167,0.012494771,-0.09419761,-0.0019882768,0.08104094,0.04854617,0.22163063,0.089868374,0.054465108,0.008943315,-0.03560074,-0.56431407,-0.033772293,-0.026740965,-0.004792145,0.058229595,-0.059254456,-0.009039053,-0.08188359,0.0231425,-0.044085458,0.08687868,0.024836775,-0.027322056,0.038910463,0.021144278,0.040704817,0.102073565,0.15181714,-0.048367158,0.012722089,0.00614714,-0.053901345,0.06987937,-0.009786851,0.016911676,-0.042034436,0.003838403,-0.056805935,0.07134858,0.06374699,0.06911632,0.02807753,-0.026859459,-0.014459473,-0.047468647,-0.056415897,-0.052632954,0.015112925,0.044456404,0.041743986,0.097782105,-0.05031455,0.008918632,0.07521352,0.17784783,-0.07942461,-0.01846923,-0.033601146,-0.023900578,-0.11276261,0.10491909,0.008513817,-0.06814323,0.060322896,-0.030649826,-0.058995422,-0.07706552,-0.08595153,0.053898815,0.059371524,-0.053498037,0.025264874,0.15778805,0.00010873543,-0.026180362,0.019161694,0.039631885,0.06618673,0.05825863,0.008352376,0.09849826,-0.0034829543,-0.07055425,-0.036406036,0.14839733,0.029844832,-0.00096665573,-0.061394326,-0.059290025,0.036119908,-0.033151202,-0.026274536,0.059684668,-0.021510633,0.021216843,0.086596355,0.036184184,0.09658398,-0.0028917314,0.006411739,-0.06974517,0.02689815,0.122933656,-0.11234992,-0.018086305,0.109718025,0.112074405,0.026078472,-0.013944847,0.07745944,0.058922384,0.014144178,-0.02987115,0.054459292,-0.00843423,0.037427954,0.084162526,0.021212991,0.029775823,0.046570636,-0.09026118,0.041052308,-0.11954942,0.033521652,-0.015028786,-0.00045558574,0.12002917,-0.013548098,0.02242744,-0.008560167,-0.009414333,0.024920508,-0.0073328647,-0.028630478,-0.006297527,0.11181429,0.020891694,-0.014656458,0.049971893,0.01924529,-0.03818247,0.07918125,-0.11311125,-0.07922651,0.07929338,-0.037218347,0.0027132337,-0.060577665,0.039218504,0.18849522,0.06527505,-0.029730642,-0.046077605,0.055338293,-0.080090694,0.086625256,-0.013428604,-0.12620948,0.038099423,-0.004092083,-0.035734322,-0.06489946,0.08600841,-0.016116811,-0.025837746,0.045587573,0.007668447,0.010020138,0.09436167,0.20663223,-0.01885719,0.06956774,-0.027646976,0.020518556,-0.035229985,0.038911182,-0.03143718,-0.036567967,0.010405658,0.05099649,-0.06038117,0.020549817,-0.0021605475,-0.111347355,-0.0888759,-0.05896399,0.17155455,0.004855102,-0.0006393575,0.074633114,0.013802148,0.08215591,0.062086735,-0.07999631,-0.070702545,-0.0642723,-0.06625368,0.2320001,-0.054092757,-0.0857096,-0.015432537,0.13120908,0.020803876,-0.035031494,-0.005652856,0.003899672,-0.08876231,0.09727802,0.15673597,-0.014560481,-0.0059990664,-0.02921245,0.0050652684,-0.022510923,0.13252398,0.034209006,-0.026708558,-0.13356684,0.09314272,0.05843949,-0.06228296,0.017664764,0.09783857,0.0032501398,-0.12617081,-0.024057506,-0.072723284,-0.14581859,0.013115622,0.027511977,0.021736588,-0.040828105,0.09125427,0.0705015,0.03723881,-0.0224528,-0.019211303,-0.11721276,-0.0108079985,-0.053424925,-0.11414371,0.010466487,0.041179027,-0.025330149,0.06160992,0.14994052,-0.07387653,-0.020774022,-0.0572975,0.10958011,0.038355663,-0.053433757,-0.121274166,-0.0017515302,0.08988113,-0.059841614,-0.013210961,-0.07752466,0.023116222,-0.07178439,-0.02913655,0.051633,0.025131874,-0.02748524,-0.07656846,-0.027196798,-0.015539469,0.026443036,-0.00369769,-0.038060926,0.025651561,0.0040927026,0.017073127,-0.030976614,-0.036440708,0.07808849,-0.11518101,0.016596224,-0.017208913,0.19118135,0.03458479,0.009610491,0.044256754,-0.03319169,-0.024892189,0.07268901,0.010447079,-0.091926485,-0.049486067,-0.079796456,0.027322449,-0.057929136,0.017150681,0.078145884,-6.822022,0.1244052,-0.011993689,0.0002907338,-0.07962632,-0.1403484,-0.051847782,-0.13287403,0.13072406,-0.0071617374,0.11213912,0.010493501,-0.0132135255,0.07466645,0.024702093,0.11193753,0.019919228,-0.11687061,-0.04798801,-0.012050696,-0.0050331717,-0.04295127,0.011571713,-0.00087341253,0.00041076128,-0.002895926,0.011705308,-0.12359886,0.18702167,0.13231951,0.023533117,0.054062158,-0.074709006,0.16015035,-0.02162584,0.094920866,0.08270835,0.012026564,0.21779764,0.06112178,-0.03368974,-0.07868548,0.06892447,-0.025686612,-0.011482978,0.008846362,0.034914054,-0.020935996,-0.060658082,0.12276132,0.08731313,0.10446719,0.0028804396,-0.09329923,-0.046569306,-0.0014829867,0.010349637,0.08709048,0.015976658,-0.009654219,0.07088142,0.04380928,-0.10519175,0.02918782,0.10418719,-0.07623197,-0.07410386,0.0581274,0.039138887,-0.07362995,0.0042954586,0.09443426,0.067205034,0.036356464,0.0059726625,0.12783095,-0.058914453,0.014471666,0.092162915,0.045121294,-0.060038544,0.12014557,-0.037216917,0.06000535,0.031259038,0.00016573265,-0.00772166,0.099905826,-0.03548474,0.1132999,0.06737657,0.13133726,-0.026810694,0.0127175385,0.01425976,0.027786147,-0.10978191,0.066409215,0.07602115,0.05557008,-0.022708658,0.10193414,0.102738805,0.046579584,0.0060463157,-0.045689344,-0.06099532,0.011589754,0.032253508,0.02024587,0.14223379,-0.027726935,-0.024125168,0.04340976,-0.107783124,0.074858665,0.09327823,-0.029465994,-0.10654607,-0.038342092
NZ_NXIE01000004.1_89(5),0.011304449,0.01506713,0.035613485,0.121862456,-0.163576,-0.0029226907,-0.014388008,-0.013361323,0.005665228,0.036866378,-0.02622697,0.022211136,0.0852446,0.007864285,-0.016420241,-0.015376047,0.09506255,0.06147079,0.038236752,-0.1157082,-0.056605007,-0.06085922,-0.03052464,0.057647895,0.008055902,-0.051923506,0.024335826,-0.07513381,0.035569638,-0.07836095,0.047948662,0.016849926,0.05312102,0.05632982,0.031979762,-0.031697046,0.018976914,-0.037204348,-0.010304746,-0.08862701,0.004656887,0.13678825,0.21827304,-0.020888418,0.017682102,-0.023171546,-0.028502282,0.07878811,0.09448411,-0.036787458,-0.06872419,0.010490251,0.13627343,-0.016470978,-0.04090617,-0.0036376761,0.02827926,-0.014843592,-0.0007636308,-0.07322801,-0.07982512,0.025817394,0.0033519818,0.034145527,-0.0886668,-0.065048054,0.081460625,-0.072707914,0.0543636,0.016373068,-0.014030964,-0.004362759,0.01607319,-0.04822154,0.047636442,-0.05454164,-0.07615625,0.16174127,0.05374635,-0.0007973626,-0.07091581,0.012046073,-0.056207646,0.0994469,0.0005411854,0.05454376,0.0006628869,-0.03626477,-0.0008104715,-0.022657394,0.03334167,0.114221744,-0.04791108,0.008637167,-0.033666153,-0.04990744,-0.01163047,0.021917492,0.0012148721,0.026874658,0.03265445,0.008522055,0.0051501067,-0.05106712,0.08707935,0.07281829,-0.04389394,-0.013202275,-0.10181066,-0.09675795,-0.06860436,0.024962232,0.017458273,-0.0059608403,-0.08428407,0.05953499,-0.14498815,-0.0860964,-0.034066394,0.0540893,-0.061625704,-0.090299755,0.101205036,-0.033853263,0.015105698,-0.03823782,-0.044530198,0.071660034,-0.04009167,0.04626937,0.13203977,-0.054963514,0.04608133,-0.037345216,0.024592262,0.0025242255,0.010942856,-0.056950286,0.0058500343,0.0010328612,0.07374666,-0.1595029,-0.024751132,-0.0047573145,-0.06847097,0.0707948,-0.09472975,0.030707,-0.036628243,-0.043012444,0.054847077,-0.050830375,0.13777527,-0.052535716,0.115945876,-0.1747478,0.10856162,-0.012711307,0.024014052,0.056859955,0.013136426,0.14692199,0.008125037,-0.09703089,-0.0804877,0.04544138,-0.021367915,-0.021502703,0.103080116,0.096992806,-0.09922239,0.034021348,0.009382685,-0.034673307,-0.09207905,0.042899963,0.020542368,0.039398048,0.08300632,0.07651441,0.05422627,-0.053730536,-0.04807247,-0.008870099,0.07352846,-0.0078109438,-0.0037157412,-0.010881697,-0.07595039,-0.07855518,0.06732961,0.086385235,0.06681774,-0.0932296,0.12673305,0.078545116,0.033299,0.03263378,0.00773509,-0.037954282,0.050552417,0.02453466,-0.021146221,-0.00036831023,-0.08282331,0.025429856,0.022853311,-0.01615851,-0.14355044,-0.18895389,0.021660417,0.018887365,-0.03616489,-0.020319844,-0.03463576,0.041108355,0.14697345,-0.013878886,0.1059553,0.034384884,0.03462219,-0.055147786,-0.039351586,0.0074651,-0.012786556,-0.1550062,-0.06722554,-0.012390793,-0.208154,0.055080708,0.06175449,-0.001994419,0.0024874078,0.043163527,-1.9129475,0.016485116,0.21779421,0.009035457,-0.050488934,-0.040065788,-0.11524803,0.06295593,-0.02242324,-0.0023393454,0.08330289,0.08985425,0.0649309,0.09038832,0.07713921,-0.095125176,0.06587965,-0.03219365,-0.15393628,-0.03319298,0.029215733,0.08741016,-0.06920506,-0.011895763,0.009500425,-0.028193431,0.22664924,0.0077387677,0.0041171387,-0.0081291655,-0.05175877,-0.03931738,-0.00087731134,-0.0815719,-0.056340028,-0.073412135,-0.06246374,0.021857437,-0.05771027,-0.02580798,-0.019699864,0.03118963,-0.023851776,-0.0035069224,0.029326847,-0.0062754615,-0.0074481647,-0.1253814,0.1318716,0.05951715,-0.046744794,-0.03856709,0.027816087,-0.004587867,-0.031134978,0.02979465,-0.02289455,-0.05850779,-0.09822004,-0.022196108,-0.017653458,0.06474885,-0.0092043495,-0.012344554,0.0018951881,0.05050522,0.07444928,0.007823215,-0.075844966,-0.03406951,-0.01362204,-0.025997398,0.05594064,0.008844008,-0.041785557,-0.022495516,0.01828134,0.058137447,0.07067211,-0.088581994,0.04757607,0.087827936,-0.11527105,-0.04660377,0.06858984,-0.014768021,0.002883962,-0.110858105,-0.036779758,-0.0021694046,0.016175719,0.071167566,0.028996151,0.111852534,0.12986878,-0.0089243045,0.035541646,-0.085591316,0.0912686,-0.0019614208,-0.13702928,0.009744101,0.14536484,-0.044536587,-0.143025,0.007607139,0.050557848,0.027961962,0.027787317,0.031621616,-0.030257545,-0.025706,-0.088155195,-0.009076841,0.03716501,0.02248433,0.15369432,-0.04874946,0.08873368,-0.008896325,0.13381858,-0.018444978,-0.007863928,-0.037549764,-0.079626255,0.06579642,-0.0885607,0.010060534,-0.03876462,0.08934088,0.075403444,-0.02313348,0.03651843,-0.051192004,0.034700796,0.006855229,0.055141903,0.11561926,-0.14998654,-0.06645789,-0.0014136662,0.11095728,0.044137385,0.11494944,0.100415275,0.044838022,0.05082851,-0.15499452,0.06644893,0.051591504,0.024624905,-0.02475447,-0.08096969,-0.06386837,-0.04703852,0.03060394,0.016695878,0.06701726,0.034276027,-0.0029478208,-0.034485284,-0.14088435,0.033611134,-0.0016924996,-0.055929296,-0.048206348,0.122999094,-0.006074534,-0.067479156,0.08825638,0.03312867,0.084430195,0.12197137,0.078942046,-0.0019206007,-0.1288686,0.14651075,-0.009265132,0.046140514,-0.05709613,-0.07588733,0.06714555,0.08125535,0.09984719,-0.027124625,0.15319456,-0.022323664,-0.12136437,0.0113531,0.053640492,0.110199094,0.043987628,0.038640838,-0.07746786,0.08219917,0.10835191,-0.09709158,0.15307584,-0.00069122476,0.008109421,0.10091627,0.031951934,0.0313949,0.059739143,0.0108677,0.040967777,-0.10016362,-0.028678188,0.034467183,-0.12336518,0.034599222,-0.0035166137,0.032448065,-0.061227653,-0.02683363,0.12630521,0.11990985,-0.033098347,-0.03323705,0.05404614,0.053165276,-0.027955463,-0.09693247,-0.030995062,0.01827385,0.10486466,0.12749165,0.06260161,0.024045663,-0.12504616,0.07389868,-0.0016083027,-0.043179978,0.05285129,0.011472022,0.08147486,-0.03372621,0.022387408,0.11979852,0.013823205,0.043670494,0.022063619,-0.06817248,0.11663535,8.0039594e-05,-0.01779204,-0.026743403,-0.06316664,0.0073656095,-0.047452368,0.1617826,-0.029434435,-0.025982378,0.06782516,0.03803927,0.03551993,0.07947703,-0.10450772,-0.031806935,-0.09418986,-0.016408408,-0.013808158,-0.021369843,-0.044009496,-0.08125711,-0.027330944,-0.061965648,0.03600516,-0.080418475,-0.0048062075,-0.010355097,-0.008105055,0.047659207,0.1577659,-0.11139135,-0.12807558,-0.041053932,0.06540789,0.10654478,-0.11150455,0.025160482,-0.08362661,-0.019410003,0.018669963,0.028055375,-0.021297244,-0.012673968,-0.12173271,-0.050586134,0.030030413,-0.064365655,-0.08198842,-0.042878844,-0.021252321,-0.017331555,-0.0049567637,-0.0073045916,0.12548198,0.013869898,-0.0097688185,0.08432933,0.004464852,0.015956163,0.061766848,-0.16954562,0.123208575,-0.07121529,0.013053526,-0.074724756,0.058805477,-0.035993636,-0.040140994,0.044144575,-0.06271042,-0.023808226,0.12130659,0.008921412,0.060816646,-0.073522575,0.1332807,-0.0068807765,-0.08472405,-0.07635792,0.0017643644,0.041633766,0.073768586,0.040618002,0.08313847,-0.04767333,-0.01669375,0.066302694,-0.030211875,0.068136014,0.048425462,0.11279326,0.035504337,0.02905193,0.19310167,-0.050639592,-0.05670655,-0.0042492887,0.100917675,-0.060689766,0.0932378,-0.049241282,-0.1218671,0.07093718,-0.07270429,-0.059060205,0.080084085,0.09001771,0.009773591,0.0113497395,-0.08022724,0.0810441,-0.03557371,0.07859532,0.0123934345,-0.024516623,0.098998696,0.01768467,0.035398535,0.052666944,0.023974437,-0.0028720817,0.0491842,0.016170327,-0.084854655,-0.015540604,0.040916603,0.036540117,0.07022053,-0.058228597,-0.035221424,-0.16315043,-0.02198968,0.07651835,-0.006140895,0.038703036,-0.07250373,0.017433574,0.057271186,0.10463398,0.0014481414,0.06208406,-0.019241728,0.043639895,-0.031751417,0.014848694,-0.06668148,0.03421967,-0.014687774,0.020416737,0.051581424,-0.01876346,0.0092261955,0.050630055,-0.0074806404,0.084263735,0.051283307,0.09832489,-0.0016607725,0.09405168,-0.059600223,-0.050189003,-0.13438283,-0.019652406,0.013803494,0.027621709,0.15835446,0.124422185,0.00951498,0.017301565,0.022313409,-0.04975768,0.09100198,0.04826398,0.10636797,-0.020943182,0.058126137,-0.011323885,-0.08288312,-0.0035972295,0.05675415,-0.037986655,0.050375547,0.06795726,0.084716514,-0.02835572,-0.0058204164,0.059879422,0.011390247,0.02947906,0.009955911,0.07212956,0.10401395,-0.011207664,-0.12305539,-0.024808379,-0.10715806,-0.058854956,-0.06669313,0.038114674,0.05662839,-0.04470513,0.017484283,0.043626815,0.027116416,0.009854263,0.059361454,0.15469134,-0.034681465,-0.03242094,0.095698945,0.11159191,-0.035645496,-0.05893201,-0.10041364,-0.08641402,0.0767684,-0.018035512,0.05215624,-0.081792764,0.012600359,0.08780176,0.0033371833,0.082840756,0.085911974,-0.040823456,-0.02668286,-0.001512115,0.08056027,0.08613679,0.0819091,-0.025173366,0.040176615,0.0019465425,0.05374597,-0.05363166,-0.06909135,-0.010971758,-0.055576395,-0.04029083,0.084319055,0.040345795,0.049399164,-0.005852553,-0.022294762,-0.09066539,0.1015435,-0.08016755,0.048394065,-0.097483136,0.06535421,-0.063710265,0.092365876,-0.073091894,0.054090783,0.084643915,0.12569061,0.01641552,0.0691423,-0.08139767,-0.107585095,0.040545534,0.05073003,-0.0465548,0.11343409,-0.028791942,-0.06588024,-0.07264046,-0.13027747,0.17159067,0.12588438,0.03310262,0.16316518,-0.018935448,0.069855,0.029312309,-0.02827869,-0.021002812,0.085806295,0.07926198,0.027508799,0.018978726,-0.11047236,-0.08292216,0.1241307,-0.036475945,0.026009448,-0.0034006238,-0.020661572,-0.041714028,0.053952556,0.0022550581,-0.0003698424,0.080769196,-0.013609022,0.11034499,-0.02124616,-0.008922669,0.10156035,-0.0010456132,-0.018661793,0.055014312,-0.05911682,-0.084293835,0.055681117,-0.05648481,-0.06811774,-0.016811196,-0.03666717,0.1265708,-0.103519626,0.067290105,-0.096852526,-0.04294826,-0.040436562,-0.012938388,0.16966857,-0.052649606,0.12674178,0.02981193,-0.028123733,-0.19847007,-0.103829995,-0.0049700723,0.0041335253,-0.021798499,-0.09798347,-0.04535982,-0.01304514,0.06151109,-0.036332306,-0.0025779344,-0.0803633,0.012743936,-0.15738991,-0.032222018,-0.120636724,-0.045497254,-0.043645192,-0.0090630185,-0.022727208,0.09005148,0.002153769,0.06905504,0.11108355,-0.16015334,-0.01691088,0.019802494,-0.005063536,0.08836065,-0.19376367,-0.03705859,-0.032057893,-0.085580364,-0.028251242,-0.08755282,0.014764722,0.05345816,-0.02623349,0.16830353,-0.006043331,-0.037108652,-0.050385244,-0.16386677,-0.019523058,0.05547891,0.04596733,0.071426384,0.082156256,-0.029739944,0.021028105,0.07620424,-0.019974522,0.0069627524,-0.13595365,-0.114825524,0.021935279,-0.07623913,-0.029983265,0.03970407,0.10814991,0.0954071,-0.08390676,0.12087239,-0.013272028,-0.094929725,0.0068491586,-0.005741974,-0.018282816,0.014617646,-0.10092108,-0.009332423,0.05786408,0.041214556,0.18641315,0.078969955,0.09464616,0.02146576,-0.056753058,-0.62565583,-0.04987747,0.012228514,-0.02522247,0.0519059,-0.051426407,-0.021458495,-0.06479106,0.053431347,-0.040447477,0.06879368,0.018496618,-0.033041507,0.0327646,0.009546775,0.052026443,0.09669186,0.14200887,-0.04316512,-0.005341812,0.02419057,-0.02153318,0.07824839,-0.036402054,-0.010562108,-0.040130295,0.023184817,-0.05705944,0.05760481,0.07918003,0.04890726,0.033220403,-0.007200554,-0.0058721686,-0.0565086,-0.04797296,-0.0844079,0.022037888,0.06572974,0.06233711,0.0794475,-0.04766877,-0.0019201037,0.048029196,0.16854768,-0.04243459,-0.028552372,-0.03869986,-0.011943332,-0.08035533,0.124422,-0.0100773,-0.06443469,0.060242653,-0.0260838,-0.039950427,-0.05441846,-0.11562938,0.035369437,0.02336153,-0.042819954,0.020559955,0.15267445,0.0056144767,0.0043083304,0.015660627,0.033858057,0.07645936,0.045486413,-0.009570473,0.081184074,0.0046258643,-0.07139299,-0.050888237,0.13702054,0.052028656,-0.014914718,-0.07351607,-0.034028795,0.06529596,-0.021179494,-0.026702067,0.032059416,-0.04520019,0.02538233,0.06669161,0.056138042,0.07317168,0.013255967,0.00038364236,-0.089036316,0.0492849,0.12665033,-0.10510377,-0.005318229,0.119063616,0.096653536,0.053598896,-0.04233987,0.08335012,0.027720723,0.0011525896,-0.011990274,0.041629434,0.012012914,0.04085576,0.08892541,0.01078398,0.034427848,0.04579,-0.0741143,0.028463734,-0.09047601,0.057611786,-0.027566377,0.00094343413,0.11564533,-0.011137259,0.034410127,-0.013422975,0.021842888,0.019573746,-0.022400934,-0.02260165,-0.030634325,0.08920252,0.017132455,0.0023844787,0.02131252,0.03066712,-0.031797457,0.053432617,-0.10410772,-0.05420122,0.09142625,-0.04449692,-0.010838901,-0.056048077,0.036516417,0.18598069,0.06920108,-0.020268148,-0.07183367,0.040585767,-0.05913436,0.098054074,-0.0120740365,-0.099071816,0.048866645,-0.008050817,-0.04461163,-0.058259927,0.0942103,-0.029198216,-0.016752133,0.023874894,0.003243971,-0.0043361895,0.063999146,0.18885118,-0.021569174,0.07075121,-0.036003955,0.04318013,-0.038569886,0.036528885,-0.0035458873,-0.04846091,-0.016795285,0.04867617,-0.091565736,0.009727039,-0.010944637,-0.12848943,-0.0586369,-0.040803377,0.17080022,0.0066056214,0.025759995,0.07368688,-0.01207697,0.08051803,0.0653229,-0.04148754,-0.030488426,-0.07231637,-0.051394142,0.23426126,-0.0464181,-0.067033425,-0.0078035654,0.14970131,0.0067484602,-0.06353335,-0.0032160517,0.01477205,-0.09149066,0.08083685,0.1362374,-0.026269156,0.007936463,-0.014884051,0.0160112,-0.0155751705,0.1475838,0.037498295,-0.005879135,-0.12639335,0.09418011,0.052976284,-0.017788405,0.051079966,0.09599314,0.007845236,-0.13622321,-0.027193537,-0.03756241,-0.17350423,0.0027605784,0.012174142,0.019122716,-0.030268934,0.10031662,0.0507902,0.057894304,-0.014023507,-0.019826883,-0.102664456,0.0017599558,-0.038447455,-0.09897627,-0.016178964,0.04850875,-0.02420068,0.054302968,0.15969357,-0.07394402,-0.0027820766,-0.0319137,0.12222609,0.021801695,-0.058038823,-0.124427624,-0.0017479475,0.08579858,-0.053129602,-0.0035632902,-0.082496814,0.03751765,-0.067894235,-0.031352047,0.029868167,0.0070946943,-0.04172753,-0.08166975,-0.032998912,-0.019086294,0.00037722953,-0.0005478726,-0.053839244,0.020839352,0.007285275,0.01304785,-0.008692539,-0.049724292,0.10434211,-0.069177024,0.0042495662,0.0009755823,0.16887133,0.029890023,0.021483582,0.04284906,-0.04138295,0.005806711,0.07953193,0.017663425,-0.07166292,-0.038410544,-0.07608988,0.027790412,-0.04923686,0.027512498,0.079399645,-7.2591143,0.15048043,0.020826727,-0.005321489,-0.06975028,-0.12917522,-0.06536759,-0.14222895,0.117291175,0.0073724915,0.0879853,0.023138035,-0.0032668647,0.059700504,0.026446054,0.11167233,0.008101419,-0.08810856,-0.024229227,-0.01859156,-0.0107073905,-0.043343533,0.010614426,0.022649439,0.0014892014,-0.008861822,-0.00087727356,-0.09619742,0.17461975,0.120257445,0.034133196,0.034654565,-0.06823092,0.12075322,-0.04027564,0.09771769,0.058186766,0.047322202,0.19880265,0.05652848,-0.024717528,-0.06678047,0.06947684,-0.010393695,-0.021047052,0.0031233719,0.03016856,-0.044000432,-0.05962974,0.14915712,0.04133359,0.08556726,-0.020122249,-0.08634961,-0.04338113,0.0077995276,-0.010095726,0.09775553,0.0052465554,0.0051071905,0.09951976,0.039931197,-0.1033097,0.051562075,0.09017092,-0.061464287,-0.064548835,0.0567578,0.05077853,-0.029243838,0.022579562,0.11135111,0.061115988,0.040103704,-0.0067569064,0.12216256,-0.03387718,0.028812878,0.05761032,0.020586312,-0.05467941,0.14106748,-0.049551327,0.05480086,0.022789001,-0.008216925,-0.0075508924,0.07839488,-0.027337218,0.11454543,0.08855188,0.16629362,-0.032858163,0.002725407,0.010079202,0.007984719,-0.12846611,0.073539935,0.034676727,0.049418043,-0.02847605,0.08630234,0.10491257,0.010664193,-0.01728085,-0.03837814,-0.05994933,0.010171701,0.034332603,0.025847092,0.1399232,-0.02798597,-0.032597333,0.06044693,-0.08011934,0.077240095,0.06857784,-0.04409504,-0.10723206,-0.048892442
